tree
version=v4
num_class=1
num_tree_per_iteration=1
label_index=0
max_feature_idx=15
objective=regression
feature_names=Store DayOfWeek Month Year Day WeekOfYear IsWeekend Promo SchoolHoliday StoreType_enc Assortment_enc Sales_lag_1 Sales_lag_7 Sales_lag_14 Sales_roll_mean_7 Sales_roll_mean_14
feature_infos=[1:1115] [1:7] [1:12] [2013:2015] [1:31] [1:52] [0:1] [0:1] [0:1] [0:3] [0:2] [0:38722] [0:37646] [0:35909] [0:26997.714285714286] [0:25465.428571428572]
tree_sizes=3032 3065 3060 3067 3054 3062 3063 3053 3034 3057 3055 3045 3044 3046 3029 3054 3027 3050 3041 3062 3068 3055 3022 3031 3034 3043 3043 3057 3026 3035 3037 3034 2969 2962 3009 3020 3002 2995 2957 3037 2974 3035 3012

Tree=0
num_leaves=31
num_cat=0
split_feature=13 1 13 13 13 7 12 7 12 5 7 11 12 11 13 11 13 12 4 11 4 7 12 13 4 11 11 13 13 12
split_gain=5.07567e+12 2.0996e+12 1.46705e+12 3.8375e+11 2.90944e+11 1.48378e+11 1.26388e+11 1.15266e+11 8.60193e+10 8.5527e+10 8.4634e+10 8.43897e+10 8.08869e+10 6.32927e+10 5.58901e+10 4.2932e+10 4.08463e+10 3.96754e+10 3.61708e+10 3.56517e+10 3.06295e+10 2.9535e+10 4.21959e+10 2.68095e+10 2.46144e+10 2.36603e+10 2.34052e+10 2.33333e+10 1.93145e+10 1.91705e+10
threshold=5584.5000000000009 6.5000000000000009 10335.500000000002 15097.000000000002 7691.5000000000009 1.0000000180025095e-35 6529.5000000000009 1.0000000180025095e-35 4363.5000000000009 2.5000000000000004 1.0000000180025095e-35 7491.5000000000009 9654.5000000000018 7461.5000000000009 18696.500000000004 10365.500000000002 12491.500000000002 10484.500000000002 1.5000000000000002 4934.5000000000009 1.5000000000000002 1.0000000180025095e-35 8267.5000000000018 8919.5000000000018 1.5000000000000002 6488.5000000000009 15712.500000000002 1760.5000000000002 3249.5000000000005 10577.500000000002
decision_type=2 2 2 2 2 2 2 2 2 2 2 2 2 2 2 2 2 2 2 2 2 2 2 2 2 2 2 2 2 2
left_child=1 5 4 7 11 8 25 12 28 24 13 21 20 18 26 -14 -9 23 -6 29 -4 -2 -23 -12 -5 -7 -11 -8 -1 -10
right_child=2 -3 3 9 10 6 27 16 19 14 17 -13 15 -15 -16 -17 -18 -19 -20 -21 -22 22 -24 -25 -26 -27 -28 -29 -30 -31
leaf_value=5465.6529591386134 5771.2212931899403 5197.9058406839686 5230.8533653513587 5237.6573715921877 5291.2285559749071 5687.1720291499023 6177.3969335482998 6284.7853008210095 5617.7179915814604 6602.5282791799282 6015.3265491051088 5934.944352682217 6095.6239643647741 6043.4997001880829 7121.5757370883712 6396.282741914818 6486.2456560579167 6378.1639912900037 5864.3933327160266 5724.7644651096007 5890.3416939599629 5837.1259357776853 6190.4862679178996 6127.0937511951761 6314.9894609818157 5817.950635451034 6910.8722083493394 5931.2654505809696 5577.9001919451566 5838.5850995589526
leaf_weight=30327 105169 133559 779 235 1134 65210 5298 31642 99148 6564 49628 69481 13879 28641 5103 7220 14758 4204 37869 57428 7339 65907 3562 37814 2174 17559 3939 14108 30999 4092
leaf_count=30327 105169 133559 779 235 1134 65210 5298 31642 99148 6564 49628 69481 13879 28641 5103 7220 14758 4204 37869 57428 7339 65907 3562 37814 2174 17559 3939 14108 30999 4092
internal_value=5771.84 5531.57 5993.1 6349.7 5910.33 5669.05 5768.77 6250.89 5623.15 6764.47 6015.46 5841.73 6095.3 5930.62 6850.08 6198.51 6348.86 6078.09 5847.73 5661.61 5827.06 5804.64 5855.24 6063.66 6209.89 5714.92 6718.17 5998.46 5522.39 5626.47
internal_weight=954769 457728 497041 93632 403409 324169 102175 75617 221994 18015 159290 244119 29217 67644 15606 21099 46400 91646 39003 160668 8118 174638 69469 87442 2409 82769 10503 19406 61326 103240
internal_count=954769 457728 497041 93632 403409 324169 102175 75617 221994 18015 159290 244119 29217 67644 15606 21099 46400 91646 39003 160668 8118 174638 69469 87442 2409 82769 10503 19406 61326 103240
is_linear=0
shrinkage=1


Tree=1
num_leaves=31
num_cat=0
split_feature=13 1 13 11 11 7 12 13 7 13 12 12 7 13 11 11 12 11 4 7 12 11 1 11 13 12 12 12 13 13
split_gain=4.12008e+12 1.82984e+12 1.09771e+12 2.62618e+11 2.4727e+11 1.30766e+11 1.12905e+11 1.01007e+11 9.72617e+10 8.31778e+10 8.23379e+10 8.19751e+10 6.21131e+10 4.17287e+10 4.01871e+10 3.42546e+10 3.268e+10 3.21976e+10 3.12931e+10 3.10589e+10 3.17477e+10 2.65863e+10 2.63365e+10 2.30401e+10 2.18236e+10 2.15116e+10 1.86975e+10 1.82097e+10 1.76091e+10 1.72271e+10
threshold=5866.5000000000009 6.5000000000000009 10910.500000000002 15106.500000000002 8818.5000000000018 1.0000000180025095e-35 6854.5000000000009 7970.5000000000009 1.0000000180025095e-35 15693.000000000002 4661.5000000000009 10484.500000000002 1.0000000180025095e-35 17395.000000000004 11147.500000000002 5233.5000000000009 7389.5000000000009 3816.5000000000005 1.5000000000000002 1.0000000180025095e-35 8393.5000000000018 5921.5000000000009 5.5000000000000009 6161.5000000000009 3500.5000000000005 14597.500000000002 10778.500000000002 3934.5000000000005 13197.500000000002 8677.5000000000018
decision_type=2 2 2 2 2 2 2 2 2 2 2 2 2 2 2 2 2 2 2 2 2 2 2 2 2 2 2 2 2 2
left_child=1 5 4 8 7 10 23 19 11 28 24 18 16 -5 29 -12 -9 -14 -4 21 -21 -2 25 27 -1 -13 -8 -7 -10 -6
right_child=2 -3 3 13 14 6 26 12 9 -11 15 22 17 -15 -16 -17 -18 -19 -20 20 -22 -23 -24 -25 -26 -27 -28 -29 -30 -31
leaf_value=-263.45545398095561 -22.047570152329513 -516.29376451423252 -496.88839830996039 840.51349291735119 201.52424091220894 -120.24311793174184 193.53534578622478 -57.054729065310568 483.80410566213152 992.21593189634245 -117.26522675831308 276.79688885319354 351.13011114903748 1214.070218141703 384.39299407637236 -20.812343562064854 149.81124096339818 180.321125932359 137.00817003098214 89.729610054307869 350.15051903511994 77.808097108302604 673.39125830303146 32.366493118403284 -155.70879043306053 532.20012112692734 533.94493980750997 -16.424895556405847 653.40272219945484 305.23493805332294
leaf_weight=39308 57368 133649 871 8680 39438 36602 17444 9565 23433 4397 114222 7808 24015 4562 29208 54336 37880 20419 7355 84730 4955 49817 4123 30434 36028 5709 1778 31379 8287 26969
leaf_count=39308 57368 133649 871 8680 39438 36602 17444 9565 23433 4397 114222 7808 24015 4562 29208 54336 37880 20419 7355 84730 4955 49817 4123 30434 36028 5709 1778 31379 8287 26969
internal_value=5.18272e-07 -200.128 215.626 564.967 147.255 -83.2488 3.34836 101.1 478.605 584.614 -125.017 330.583 187.676 969.207 286.639 -86.1729 108.107 272.637 69.8888 60.6955 104.118 24.3629 452.152 -39.9481 -211.928 384.668 225.023 -72.3222 528.113 243.643
internal_weight=954769 495180 459589 75225 384364 361531 117637 288749 61983 36117 243894 25866 91879 13242 95615 168558 47445 44434 8226 196870 89685 107185 17640 98415 75336 13517 19222 67981 31720 66407
internal_count=954769 495180 459589 75225 384364 361531 117637 288749 61983 36117 243894 25866 91879 13242 95615 168558 47445 44434 8226 196870 89685 107185 17640 98415 75336 13517 19222 67981 31720 66407
is_linear=0
shrinkage=0.1


Tree=2
num_leaves=31
num_cat=0
split_feature=13 1 13 13 13 13 7 13 11 11 11 4 5 11 12 7 5 13 12 11 13 11 7 12 4 12 5 4 12 1
split_gain=3.3514e+12 1.23975e+12 1.06523e+12 3.0899e+11 1.93846e+11 1.13656e+11 8.60468e+10 7.64104e+10 6.70981e+10 6.43755e+10 6.12916e+10 4.89113e+10 4.35662e+10 4.33693e+10 4.29778e+10 3.6504e+10 3.55619e+10 2.70573e+10 2.55651e+10 2.51592e+10 2.49424e+10 2.4321e+10 2.17677e+10 2.44426e+10 1.76164e+10 1.7562e+10 1.73057e+10 1.70669e+10 1.70627e+10 1.61174e+10
threshold=5251.5000000000009 6.5000000000000009 9743.5000000000018 14620.500000000002 7094.5000000000009 1.0000000180025095e-35 1.0000000180025095e-35 3853.5000000000005 17363.000000000004 8402.5000000000018 9416.5000000000018 1.5000000000000002 2.5000000000000004 7150.5000000000009 9394.5000000000018 1.0000000180025095e-35 47.500000000000007 11632.500000000002 6638.5000000000009 3742.5000000000005 20705.500000000004 7272.5000000000009 1.0000000180025095e-35 6049.5000000000009 2.5000000000000004 9056.5000000000018 47.500000000000007 1.5000000000000002 9654.5000000000018 4.5000000000000009
decision_type=2 2 2 2 2 2 2 2 2 2 2 2 2 2 2 2 2 2 2 2 2 2 2 2 2 2 2 2 2 2
left_child=1 5 4 6 13 14 10 -7 12 15 11 -4 27 -2 21 18 17 -8 -6 28 -14 24 -9 -24 -1 -13 -11 -5 -17 -20
right_child=2 -3 3 8 9 7 16 22 -10 26 -12 25 20 -15 -16 19 -18 -19 29 -21 -22 -23 23 -25 -26 -27 -28 -29 -30 -31
leaf_value=357.97108658530163 0.92002055206199285 -465.19631186592096 -471.76976250792598 -453.36034293086772 -74.431284993672548 -193.38550071750404 350.99351584678152 -102.55554281146857 1073.8056690719586 221.16894125182981 414.58455949142621 42.724535092612847 699.1793231362193 98.540902314636199 322.35375317392521 235.78961505206269 680.15197997779399 497.27482192481898 53.433770625684758 122.92289027545718 1162.0495814832982 218.58851380772626 -60.467814623730185 103.9428215075403 -44.588976504618898 232.2843866211899 373.14220391186831 384.93669963443625 590.44124100734621 163.39050862183171
leaf_weight=1151 166730 133463 1224 271 10415 86771 33762 108608 5629 62055 12722 6921 11368 62594 6055 22169 5177 20216 34303 33751 1297 5258 40939 11606 19570 16634 8522 2339 1445 21804
leaf_count=1151 166730 133463 1224 271 10415 86771 33762 108608 5629 62055 12722 6921 11368 62594 6055 22169 5177 20216 34303 33751 1297 5258 40939 11606 19570 16634 8522 2339 1445 21804
internal_value=-3.05875e-06 -214.391 163.728 430.062 89.8456 -94.8254 354.667 -117.729 778.674 163.29 236.165 144.561 669.915 27.5656 82.4314 119.863 429.791 405.779 69.4553 178.317 746.581 26.5121 -76.992 -24.1532 -22.2278 176.587 239.519 297.895 257.492 96.1646
internal_weight=954769 413421 541348 117560 423788 279958 96656 247924 20904 194464 37501 24779 15275 229324 32034 123887 59155 53978 66522 57365 12665 25979 161153 52545 20721 23555 70577 2610 23614 56107
internal_count=954769 413421 541348 117560 423788 279958 96656 247924 20904 194464 37501 24779 15275 229324 32034 123887 59155 53978 66522 57365 12665 25979 161153 52545 20721 23555 70577 2610 23614 56107
is_linear=0
shrinkage=0.1


Tree=3
num_leaves=31
num_cat=0
split_feature=13 1 13 11 11 7 12 13 12 7 12 13 7 4 11 1 11 7 12 12 11 11 13 11 12 12 13 1 4 4
split_gain=2.72259e+12 1.25231e+12 6.89224e+11 1.65648e+11 1.65226e+11 9.83745e+10 8.79932e+10 6.97282e+10 6.45193e+10 6.05908e+10 6.02615e+10 5.5559e+10 4.24906e+10 2.95646e+10 2.63534e+10 2.6175e+10 2.61614e+10 2.37496e+10 2.43531e+10 2.37391e+10 2.20513e+10 2.19099e+10 2.06534e+10 1.88447e+10 1.79408e+10 1.76781e+10 1.62156e+10 1.62104e+10 1.58973e+10 1.44315e+10
threshold=6058.5000000000009 6.5000000000000009 11250.500000000002 9244.5000000000018 15712.500000000002 1.0000000180025095e-35 7198.5000000000009 8244.5000000000018 4981.5000000000009 1.0000000180025095e-35 12264.500000000002 17395.000000000004 1.0000000180025095e-35 1.5000000000000002 5350.5000000000009 4.5000000000000009 11962.500000000002 1.0000000180025095e-35 7777.5000000000009 14189.500000000002 6161.5000000000009 3779.5000000000005 3304.5000000000005 6918.5000000000009 8112.5000000000009 4391.5000000000009 13487.500000000002 5.5000000000000009 1.5000000000000002 1.5000000000000002
decision_type=2 2 2 2 2 2 2 2 2 2 2 2 2 2 2 2 2 2 2 2 2 2 2 2 2 2 2 2 2 2
left_child=1 5 3 7 9 8 23 17 22 10 15 26 13 -9 -10 28 -5 20 -19 -6 29 -14 -1 25 -15 -7 -11 -12 -4 -2
right_child=2 -3 4 16 19 6 -8 12 14 11 27 -13 21 24 -16 -17 -18 18 -20 -21 -22 -23 -24 -25 -26 -27 -28 -29 -30 -31
leaf_value=-225.05383335510743 -405.00970616496193 -418.0796183043891 -430.17621098298298 224.85801012289494 683.50512329059222 -78.602579606843562 213.34122887146825 -362.79806121392602 -88.721874975105834 411.72048535837666 381.27306054513122 954.13254692901103 304.93728672642027 9.4105682719352188 -3.2915561953543246 284.80257472550414 356.57165690682012 84.526132968318421 276.22091268254508 975.81377424368065 81.27140212257099 163.71526346362467 -127.90140589652111 58.510934255277782 154.32096703599541 14.544058442778075 571.39581096219229 664.55782888016961 41.336975850412415 -4.9146639791014026
leaf_weight=35936 916 133711 832 61947 5405 57163 18017 1337 113249 20337 9306 2483 23495 11759 53011 5061 19932 86375 7178 5717 46362 20634 55951 21720 31245 31660 9254 2580 5087 57109
leaf_count=35936 916 133711 832 61947 5405 57163 18017 1337 113249 20337 9306 2483 23495 11759 53011 5061 19932 86375 7178 5717 46362 20634 55951 21720 31245 31660 9254 2580 5087 57109
internal_value=3.61279e-06 -154.272 184.841 131.49 482.266 -63.0554 8.41578 95.6317 -98.6488 411.111 286.733 499.781 169.436 100.299 -61.4829 117.829 256.921 62.6448 99.2342 833.759 29.8528 238.904 -165.897 -24.9843 114.697 -45.4015 461.656 442.763 -24.9409 -11.2307
internal_weight=954769 520418 434351 368289 66062 386707 128560 286410 258147 54940 22866 32074 88470 44341 166260 10980 81879 197940 93553 11122 104387 44129 91887 110543 43004 88823 29591 11886 5919 58025
internal_count=954769 520418 434351 368289 66062 386707 128560 286410 258147 54940 22866 32074 88470 44341 166260 10980 81879 197940 93553 11122 104387 44129 91887 110543 43004 88823 29591 11886 5919 58025
is_linear=0
shrinkage=0.1


Tree=4
num_leaves=31
num_cat=0
split_feature=13 13 1 13 13 13 11 7 5 11 13 12 13 12 11 11 7 1 11 12 12 11 4 4 4 12 7 12 11 4
split_gain=2.21707e+12 7.62377e+11 7.36582e+11 2.1769e+11 1.41023e+11 9.541e+10 6.51621e+10 4.70443e+10 4.66958e+10 4.3297e+10 3.95074e+10 3.82337e+10 3.75819e+10 3.3951e+10 2.88932e+10 2.40829e+10 2.35511e+10 1.89519e+10 1.87426e+10 1.83768e+10 1.82694e+10 1.66879e+10 1.56853e+10 1.52286e+10 1.42936e+10 1.38587e+10 1.36439e+10 1.36937e+10 1.35138e+10 1.31703e+10
threshold=4984.5000000000009 9537.5000000000018 6.5000000000000009 14620.500000000002 6923.5000000000009 1.0000000180025095e-35 12717.000000000002 1.0000000180025095e-35 2.5000000000000004 8117.5000000000009 3628.5000000000005 8657.5000000000018 20705.500000000004 8850.5000000000018 7889.5000000000009 3306.5000000000005 1.0000000180025095e-35 4.5000000000000009 18729.000000000004 9459.5000000000018 6503.5000000000009 7928.5000000000009 1.5000000000000002 1.5000000000000002 1.5000000000000002 13837.500000000002 1.0000000180025095e-35 5647.5000000000009 10820.500000000002 2.5000000000000004
decision_type=2 2 2 2 2 2 2 2 2 2 2 2 2 2 2 2 2 2 2 2 2 2 2 2 2 2 2 2 2 2
left_child=2 4 5 6 14 13 7 11 25 16 -7 24 18 21 -2 -9 20 23 -10 -18 -6 29 -17 -13 -3 -5 -12 -28 -11 -1
right_child=1 3 -4 8 9 10 -8 15 12 28 26 17 -14 -15 -16 22 19 -19 -20 -21 -22 -23 -24 -25 -26 -27 27 -29 -30 -31
leaf_value=316.33847623569631 -2.9938245820077984 -391.0486636094526 -377.11659199097403 85.778987266344771 -74.102913614186363 -172.18823307731748 459.19222692197656 384.08155894890365 582.9604325223404 158.76035854133153 -100.23668089017013 -492.60122368706499 1050.922840581848 262.80765149064274 92.994006142322775 -254.00300472937829 124.67641395203577 315.36426031894894 864.79794409544184 440.68230561564292 69.839895870385732 219.0810403718676 257.59487783417768 164.66063441267636 23.038524563898971 554.21450891904306 -66.636284408371665 59.716401463529422 255.77758161763992 -33.747953170635618
leaf_weight=1136 208964 934 133383 1783 10390 68016 17318 23525 12719 59777 100575 360 2527 7450 36896 613 54151 11789 2897 1905 58259 3568 26793 16966 7755 978 32973 11593 18896 19880
leaf_count=1136 208964 934 133383 1783 10390 68016 17318 23525 12719 59777 100575 360 2527 7450 36896 613 54151 11789 2897 1905 58259 3568 26793 16966 7755 978 32973 11593 18896 19880
internal_value=-1.53911e-07 123.518 -187.997 339.895 62.3692 -85.1162 281.759 247.13 634.837 123.972 -109.299 162.616 693.142 75.796 11.411 309.861 87.3239 217.555 635.245 135.416 48.0542 19.1235 246.152 151.004 -21.4726 251.708 -79.8273 -33.768 182.062 -14.8244
internal_weight=954769 576195 378574 126957 449238 245191 106053 88735 20904 203378 213157 37804 18143 32034 245860 50931 124705 29115 15616 56056 68649 24584 27406 17326 8689 2761 145141 44566 78673 21016
internal_count=954769 576195 378574 126957 449238 245191 106053 88735 20904 203378 213157 37804 18143 32034 245860 50931 124705 29115 15616 56056 68649 24584 27406 17326 8689 2761 145141 44566 78673 21016
is_linear=0
shrinkage=0.1


Tree=5
num_leaves=31
num_cat=0
split_feature=13 1 13 11 11 7 12 13 12 5 13 7 4 4 11 11 13 11 5 4 12 4 4 12 11 11 11 7 11 12
split_gain=1.80183e+12 8.50558e+11 4.40308e+11 1.20626e+11 9.1533e+10 7.44911e+10 6.90112e+10 5.23503e+10 4.92992e+10 4.18829e+10 3.47698e+10 3.25527e+10 2.35677e+10 2.21929e+10 1.98261e+10 1.94742e+10 1.84298e+10 1.83405e+10 1.79546e+10 1.71054e+10 1.59543e+10 1.57837e+10 1.5166e+10 1.49146e+10 1.47176e+10 1.34969e+10 1.33272e+10 1.32385e+10 1.9456e+10 1.31987e+10
threshold=6233.5000000000009 6.5000000000000009 11943.500000000002 9817.5000000000018 16442.000000000004 1.0000000180025095e-35 7389.5000000000009 8367.5000000000018 5340.5000000000009 2.5000000000000004 17395.000000000004 1.0000000180025095e-35 1.5000000000000002 1.5000000000000002 13837.500000000002 5446.5000000000009 3781.5000000000005 3779.5000000000005 1.5000000000000002 27.500000000000004 4911.5000000000009 8.5000000000000018 1.5000000000000002 8348.5000000000018 8444.5000000000018 6540.5000000000009 20881.500000000004 1.0000000180025095e-35 11527.500000000002 1.0000000180025095e-35
decision_type=2 2 2 2 2 2 2 2 2 2 2 2 2 2 2 2 2 2 2 2 2 2 2 2 2 2 2 2 2 2
left_child=1 5 3 7 9 8 20 18 16 22 27 12 -9 -5 -15 -10 -1 -13 -2 21 24 -20 -4 -14 -7 -23 -6 28 -11 -3
right_child=2 29 4 13 26 6 -8 11 15 10 -12 17 23 14 -16 -17 -18 -19 19 -21 -22 25 -24 -25 -26 -27 -28 -29 -30 -31
leaf_value=-169.83714290158485 -201.0533899773479 -341.96204958228554 -354.836229592552 20.284937390613493 649.33152061351166 -47.407190147627851 195.25001673190786 -298.85712530395966 -66.724265448472849 209.73773322653915 692.88728879601922 264.58493750240683 13.726440237781455 233.18460237101331 408.01282568573629 8.4815820711846666 -88.862595280961528 144.9578316399915 107.12040992405642 153.53068035611452 41.975184926094116 6.704985053190768 172.75317019335932 139.11588616678077 153.67352782139133 71.545717145308103 924.3744994854917 424.8964943649093 483.95013846005133 -48.633717284570501
leaf_weight=56069 2590 132217 613 4371 6413 82487 17819 1505 107457 8463 3877 25832 13290 56729 7324 50666 56362 25435 42158 19199 34437 69510 4901 33143 3808 59652 2429 20734 3727 1552
leaf_count=56069 2590 132217 613 4371 6413 82487 17819 1505 107457 8463 3877 25832 13290 56729 7324 50666 56362 25435 42158 19199 34437 69510 4901 33143 3808 59652 2429 20734 3727 1552
internal_value=1.22108e-06 -119.661 157.712 118.777 432.266 -48.0854 11.5436 90.7993 -78.6214 371.121 409.631 149.842 90.6037 238.298 253.175 -42.6267 -129.244 205.235 60.4674 64.0226 -15.5699 53.9919 114.1 103.227 -38.534 36.6509 724.889 376.276 293.576 -338.559
internal_weight=954769 542874 411895 360738 51157 409105 138551 292314 270554 42315 36801 99205 47938 68424 64053 158123 112431 51267 193109 190519 120732 171320 5514 46433 86295 129162 8842 32924 12190 133769
internal_count=954769 542874 411895 360738 51157 409105 138551 292314 270554 42315 36801 99205 47938 68424 64053 158123 112431 51267 193109 190519 120732 171320 5514 46433 86295 129162 8842 32924 12190 133769
is_linear=0
shrinkage=0.1


Tree=6
num_leaves=31
num_cat=0
split_feature=13 13 1 13 13 13 5 11 11 12 11 5 13 4 7 12 7 11 11 11 11 2 13 7 12 1 1 12 5 4
split_gain=1.46845e+12 5.2727e+11 4.51955e+11 1.60899e+11 8.84183e+10 7.55689e+10 4.62269e+10 3.61343e+10 3.48731e+10 2.92384e+10 2.7126e+10 2.28459e+10 2.27689e+10 2.11765e+10 2.01744e+10 3.35924e+10 1.69056e+10 2.0889e+10 1.63598e+10 2.09887e+10 1.57118e+10 1.50483e+10 1.36991e+10 1.3614e+10 1.32952e+10 1.30593e+10 1.27192e+10 1.25345e+10 1.18952e+10 1.14742e+10
threshold=4835.5000000000009 9241.5000000000018 6.5000000000000009 14179.500000000002 6754.5000000000009 1.0000000180025095e-35 2.5000000000000004 17363.000000000004 12955.500000000002 11111.500000000002 7889.5000000000009 4.5000000000000009 3130.5000000000005 29.500000000000004 1.0000000180025095e-35 8035.5000000000009 1.0000000180025095e-35 8359.5000000000018 1.0000000180025095e-35 5678.5000000000009 8621.5000000000018 10.500000000000002 18696.500000000004 1.0000000180025095e-35 8750.5000000000018 5.5000000000000009 5.5000000000000009 7847.5000000000009 47.500000000000007 29.500000000000004
decision_type=2 2 2 2 2 2 2 2 2 2 2 2 2 2 2 2 2 2 2 2 2 2 2 2 2 2 2 2 2 2
left_child=2 4 5 6 14 9 -3 11 13 20 18 -5 -7 16 29 -16 17 26 23 -20 -1 24 -13 25 -18 -6 -8 -25 -12 -2
right_child=1 3 -4 7 10 12 8 -9 -10 -11 28 22 -14 -15 15 -17 21 -19 19 -21 -22 -23 -24 27 -26 -27 -28 -29 -30 -31
leaf_value=11.505001919229583 -27.249772560189214 -26.603691672378773 -305.58944365417875 215.38728683830411 24.29874019622082 -167.66629305197787 51.381951286072365 714.60272394326523 372.1257723234886 362.9538969257863 122.70736079025829 443.43248446195986 -80.377317901263851 439.7651104514664 17.487113491000208 204.80437745613068 192.92396691461624 236.75403907302905 -61.036805355291364 62.629269412931791 244.10433071238936 382.50304197224619 700.85925151833317 142.03648395102078 331.67052386764948 339.34613445536564 264.46884771771914 392.04655391651494 242.5625074624428 108.27312530610055
leaf_weight=25703 136932 7341 133342 3892 16334 36891 18163 5922 15404 3057 73244 11740 157305 3848 91765 10689 40015 15437 17242 67265 3274 6187 2509 20068 8347 1431 3312 2228 9336 6546
leaf_count=25703 136932 7341 133342 3892 16334 36891 18163 5922 15404 3057 73244 11740 157305 3848 91765 10689 40015 15437 17242 67265 3274 6187 2509 20068 8347 1431 3312 2228 9336 6546
internal_value=-8.73123e-07 96.3926 -159.558 264.447 43.6791 -73.4857 216.409 500.125 232.522 68.8163 91.813 430.111 -96.9594 209.959 3.13603 37.0299 200.291 148.026 62.3493 37.3976 37.7855 235.657 488.761 114.984 216.871 49.6763 84.2455 167.02 136.257 -21.0667
internal_weight=954769 595197 359572 142117 453080 226230 118054 24063 110713 32034 207148 18141 194196 95309 245932 102454 91461 36912 124568 84507 28977 54549 14249 40061 48362 17765 21475 22296 82580 143478
internal_count=954769 595197 359572 142117 453080 226230 118054 24063 110713 32034 207148 18141 194196 95309 245932 102454 91461 36912 124568 84507 28977 54549 14249 40061 48362 17765 21475 22296 82580 143478
is_linear=0
shrinkage=0.1


Tree=7
num_leaves=31
num_cat=0
split_feature=13 1 13 13 11 13 13 5 11 11 7 11 12 12 12 7 1 5 4 11 12 7 11 5 1 11 2 2 12 11
split_gain=1.19462e+12 4.48036e+11 3.72471e+11 1.06811e+11 7.23694e+10 4.87342e+10 3.9317e+10 3.88453e+10 3.08396e+10 3.90097e+10 3.06067e+10 3.02944e+10 2.41101e+10 2.22962e+10 2.10639e+10 2.84497e+10 2.04057e+10 1.91736e+10 1.84474e+10 1.67987e+10 1.65993e+10 1.60288e+10 1.95005e+10 1.52217e+10 1.86001e+10 1.51557e+10 1.49154e+10 5.20593e+10 1.41022e+10 1.40951e+10
threshold=5419.5000000000009 6.5000000000000009 10090.500000000002 15693.000000000002 8277.5000000000018 1.0000000180025095e-35 4214.5000000000009 2.5000000000000004 1.0000000180025095e-35 5774.5000000000009 1.0000000180025095e-35 13837.500000000002 11915.500000000002 5978.5000000000009 16430.500000000004 1.0000000180025095e-35 5.5000000000000009 51.500000000000007 1.5000000000000002 10820.500000000002 14189.500000000002 1.0000000180025095e-35 1.0000000180025095e-35 51.500000000000007 3.5000000000000004 8669.5000000000018 4.5000000000000009 5.5000000000000009 7482.5000000000009 7035.5000000000009
decision_type=2 2 2 2 2 2 2 2 2 2 2 2 2 2 2 2 2 2 2 2 2 2 2 2 2 2 2 2 2 2
left_child=1 5 4 7 8 12 -7 -4 10 17 16 21 29 -12 15 -5 20 -10 26 -20 -2 25 28 -22 -25 -9 -6 -28 -23 -1
right_child=2 -3 3 14 18 6 -8 11 9 -11 13 -13 -14 -15 -16 -17 -18 -19 19 -21 23 22 -24 24 -26 -27 27 -29 -30 -31
leaf_value=-0.43909230952650297 -17.382854348740871 -274.65078229039744 0.41121452605868919 138.53896293568957 184.1639167475503 -110.6615078103889 -33.988929294603402 94.649700210555338 -39.933274108198141 43.964440802258586 105.25847019735605 396.68986310443552 380.47880014065674 273.83855934265688 670.54158823827277 532.25286470428296 274.33371416168086 -494.68002985316389 116.56331155819237 209.46005718569106 98.742678493303487 278.59472213272142 199.99090880143322 889.05637769141958 -228.79562493896483 246.85642636739013 -687.62536835647506 85.163420849535328 461.70583131378481 160.29120875480584
leaf_weight=22633 32023 133506 6761 2508 2024 121667 148525 14516 67975 158735 28538 11982 2212 10820 5700 6843 3049 940 78736 25859 2546 13491 23041 582 200 11909 1246 2902 6111 7189
leaf_count=22633 32023 133506 6761 2508 2024 121667 148525 14516 67975 158735 28538 11982 2212 10820 5700 6843 3049 940 78736 25859 2546 13491 23041 582 200 11909 1246 2902 6111 7189
internal_value=1.36279e-06 -122.083 102.489 272.884 60.374 -54.6877 -68.5145 230.696 35.2607 16.6889 89.6327 249.906 61.9347 151.603 519.019 426.656 26.1162 -46.136 129.617 139.53 4.70763 224.442 262.364 217.269 603.161 163.245 -38.3813 -146.971 335.68 38.3071
internal_weight=954769 435732 519037 102862 416175 302226 270192 87811 305408 227650 77758 81050 32034 39358 15051 9351 38400 68915 110767 104595 35351 69068 42643 3328 782 26425 6172 4148 19602 29822
internal_count=954769 435732 519037 102862 416175 302226 270192 87811 305408 227650 77758 81050 32034 39358 15051 9351 38400 68915 110767 104595 35351 69068 42643 3328 782 26425 6172 4148 19602 29822
is_linear=0
shrinkage=0.1


Tree=8
num_leaves=31
num_cat=0
split_feature=13 1 13 11 7 12 13 12 13 5 5 11 4 4 4 5 13 4 11 11 1 3 4 11 11 5 12 7 11 7
split_gain=9.73492e+11 4.62625e+11 2.33941e+11 6.73991e+10 5.01925e+10 4.92373e+10 4.73939e+10 3.30288e+10 2.84722e+10 2.60172e+10 2.12854e+10 1.58808e+10 1.63805e+10 1.56649e+10 1.45577e+10 1.41293e+10 1.38427e+10 1.38082e+10 1.33567e+10 1.30552e+10 1.24049e+10 1.75029e+10 1.22324e+10 1.20184e+10 1.19174e+10 1.17761e+10 1.12822e+10 1.24116e+10 1.08323e+10 1.15538e+10
threshold=6384.5000000000009 6.5000000000000009 12301.500000000002 10108.500000000002 1.0000000180025095e-35 6099.5000000000009 17395.000000000004 5577.5000000000009 8540.5000000000018 2.5000000000000004 2.5000000000000004 1.0000000180025095e-35 1.5000000000000002 29.500000000000004 1.5000000000000002 1.5000000000000002 2843.5000000000005 29.500000000000004 14620.500000000002 5037.5000000000009 3.5000000000000004 2014.5000000000002 8.5000000000000018 9612.5000000000018 14620.500000000002 47.500000000000007 15099.000000000002 1.0000000180025095e-35 1.0000000180025095e-35 1.0000000180025095e-35
decision_type=2 2 2 2 2 2 2 2 2 2 2 2 2 2 2 2 2 2 2 2 2 2 2 2 2 2 2 2 2 2
left_child=1 4 3 8 7 -6 9 16 15 -4 -10 -7 -13 22 20 -2 -1 -17 28 -9 -5 -22 -12 -14 -16 26 27 -8 29 -11
right_child=2 -3 6 14 5 11 25 19 10 18 13 12 23 -15 24 17 -18 -19 -20 -21 21 -23 -24 -25 -26 -27 -28 -29 -30 -31
leaf_value=-164.31011526777525 -176.73029602624115 -246.77940912461924 42.96479909237182 182.61069130197424 -17.529965169626863 245.2482661390905 16.527760114486401 -53.145690174218373 -64.028876759192912 157.3340145955342 203.33283097277118 -564.88732930765525 59.596134741652193 340.4025177205765 186.21830652224648 47.478761200722573 -80.269912121987474 183.2060598118783 427.36953805323151 5.5584288748057045 -1.9941757144921841 -680.67087581323585 103.653795618218 240.24962037601782 345.3683731933408 885.99351014769479 606.71003238790922 468.38394164566989 214.73668364658798 402.55150977464132
leaf_weight=24233 2712 133811 3983 1982 114128 7858 780 86373 6124 2459 14807 385 20253 3362 52633 178545 102506 7824 7843 67480 1554 503 73044 4501 5167 890 4560 2755 12925 8789
leaf_count=24233 2712 133811 3983 1982 114128 7858 780 86373 6124 2459 14807 385 20253 3362 52633 178545 102506 7824 7843 67480 1554 503 73044 4501 5167 890 4560 2755 12925 8789
internal_value=-9.30332e-07 -84.5008 120.663 92.9422 -33.732 13.5761 335.27 -58.5375 72.5009 283.99 116.444 121.164 82.3773 128.561 187.62 49.8792 -96.3387 53.1768 313.976 -27.398 4.07477 -167.952 120.454 92.4442 200.445 540.726 502.766 368.682 277.185 348.943
internal_weight=954769 561528 393241 348257 427717 147125 44984 280592 286418 35999 97337 32997 25139 91213 61839 189081 126739 186369 32016 153853 4039 2057 87851 24754 57800 8985 8095 3535 24173 11248
internal_count=954769 561528 393241 348257 427717 147125 44984 280592 286418 35999 97337 32997 25139 91213 61839 189081 126739 186369 32016 153853 4039 2057 87851 24754 57800 8985 8095 3535 24173 11248
is_linear=0
shrinkage=0.1


Tree=9
num_leaves=31
num_cat=0
split_feature=13 13 1 13 11 13 11 5 13 5 7 5 12 11 11 1 12 12 4 13 5 1 5 4 4 5 8 15 11 5
split_gain=7.94552e+11 2.94893e+11 2.26114e+11 9.12233e+10 5.02476e+10 4.82368e+10 2.89231e+10 2.67408e+10 2.63005e+10 2.59379e+10 2.36179e+10 2.05926e+10 2.0087e+10 2.00673e+10 1.80584e+10 1.75652e+10 1.65633e+10 1.46956e+10 1.36713e+10 1.28186e+10 1.25684e+10 3.13844e+10 4.51432e+10 1.96573e+10 3.90507e+10 3.8481e+10 1.31484e+10 1.63993e+10 1.25423e+10 1.18235e+10
threshold=4734.5000000000009 9131.5000000000018 6.5000000000000009 13817.500000000002 7150.5000000000009 1.0000000180025095e-35 1.0000000180025095e-35 51.500000000000007 20705.500000000004 2.5000000000000004 1.0000000180025095e-35 2.5000000000000004 13509.500000000002 11400.500000000002 4809.5000000000009 5.5000000000000009 5907.5000000000009 8612.5000000000018 29.500000000000004 2923.5000000000005 25.500000000000004 1.5000000000000002 13.500000000000002 25.500000000000004 26.500000000000004 51.500000000000007 1.0000000180025095e-35 4219.6785714285716 9817.5000000000018 47.500000000000007
decision_type=2 2 2 2 2 2 2 2 2 2 2 2 2 2 2 2 2 2 2 2 2 2 2 2 2 2 2 2 2 2
left_child=2 4 5 9 6 12 10 14 11 -3 15 -5 28 18 -8 20 -12 29 -11 -7 21 22 -2 25 -25 -22 27 -24 -1 -6
right_child=1 3 -4 8 17 19 7 -9 -10 13 16 -13 -14 -15 -16 -17 -18 -19 -20 -21 23 -23 26 24 -26 -27 -28 -29 -30 -31
leaf_value=22.949361470970498 18.155477524476975 -28.884711113266658 -222.94668016191031 74.538484622964418 48.214597006962279 -139.66864750787769 -69.845344721990358 -402.38209879766083 635.21969669035059 134.55601018954187 75.338001255608887 357.23485516399126 453.79020510474669 240.60404134516759 3.4280013876112649 217.46203177421313 228.48508227897747 130.39472944991732 341.04795424805229 -65.679623882111272 52.352618046002718 127.08785809848585 -551.75887221962466 -571.1905093489022 87.624649549329533 606.13782918374545 -542.30410396566811 -144.78934705647254 273.75156098708226 153.82581587226522
leaf_weight=28669 9018 7249 133319 2936 113553 27617 41654 1757 3032 83084 25804 21058 1222 27499 174705 3672 9723 36223 3335 153921 12563 6465 1281 1392 2544 1394 1884 4361 2143 11692
leaf_count=28669 9018 7249 133319 2936 113553 27617 41654 1757 3032 83084 25804 21058 1222 27499 174705 3672 9723 36223 3335 153921 12563 6465 1281 1392 2544 1394 1884 4361 2143 11692
internal_value=1.09954e-06 68.9129 -120.76 191.583 29.3664 -56.9718 5.03851 -13.8341 357.71 154.529 56.4288 322.643 56.1627 166.2 -10.6788 7.9513 117.251 74.2979 142.525 -76.9354 -10.8576 -59.741 -132.749 52.0026 -145.371 107.664 -313.57 -237.191 40.3929 58.0737
internal_weight=954769 607878 346891 148193 459685 213572 298217 218116 27026 121167 80101 23994 32034 113918 216359 44574 35527 161468 86419 181538 40902 23009 16544 17893 3936 13957 7526 5642 30812 125245
internal_count=954769 607878 346891 148193 459685 213572 298217 218116 27026 121167 80101 23994 32034 113918 216359 44574 35527 161468 86419 181538 40902 23009 16544 17893 3936 13957 7526 5642 30812 125245
is_linear=0
shrinkage=0.1


Tree=10
num_leaves=31
num_cat=0
split_feature=13 1 13 12 11 11 7 11 7 11 7 5 1 5 4 12 11 7 12 1 1 1 5 12 4 2 5 4 1 8
split_gain=6.50575e+11 3.11744e+11 1.49925e+11 4.3452e+10 4.13145e+10 3.51419e+10 3.43306e+10 2.66192e+10 3.17887e+10 2.55823e+10 2.32858e+10 2.11256e+10 2.09444e+10 2.07143e+10 2.01464e+10 1.87103e+10 1.85804e+10 1.49819e+10 2.3671e+10 1.49586e+10 1.45793e+10 1.27201e+10 2.22192e+10 1.27169e+10 1.30643e+10 4.99906e+10 3.6739e+10 1.24869e+10 1.22596e+10 3.03012e+10
threshold=6565.5000000000009 6.5000000000000009 11501.500000000002 15099.000000000002 6065.5000000000009 10365.500000000002 1.0000000180025095e-35 1.0000000180025095e-35 1.0000000180025095e-35 4244.5000000000009 1.0000000180025095e-35 1.5000000000000002 4.5000000000000009 47.500000000000007 26.500000000000004 4661.5000000000009 13508.500000000002 1.0000000180025095e-35 6911.5000000000009 5.5000000000000009 4.5000000000000009 2.5000000000000004 51.500000000000007 9004.5000000000018 24.500000000000004 11.500000000000002 51.500000000000007 1.5000000000000002 4.5000000000000009 1.0000000180025095e-35
decision_type=2 2 2 2 2 2 2 2 2 2 2 2 2 2 2 2 2 2 2 2 2 2 2 2 2 2 2 2 2 2
left_child=1 4 5 6 7 11 12 8 20 -9 -5 -2 27 -8 17 -10 -6 19 -19 23 21 22 -1 -13 26 -26 -25 -4 -7 -30
right_child=2 -3 3 10 16 28 13 9 15 -11 -12 14 -14 -15 -16 -17 -18 18 -20 -21 -22 -23 -24 24 25 -27 -28 -29 29 -31
leaf_value=-64.666055219995869 -117.28171263456805 -199.80538398220321 -384.27281890514394 333.88329903561009 17.176578287933051 185.58075055786952 238.84251456442166 -107.38811298303789 10.602463257190522 -38.556954509776887 649.88944246484039 -38.071414635362899 209.23709460118081 511.42142144252813 138.26742937355399 193.38935706344233 420.17925674890523 54.345848151709255 159.65139476935502 91.95160727220248 75.406126831474111 -416.99307623200895 398.88972019434652 48.896402052010941 80.640011936490723 -574.9434391970002 690.64661036757172 17.963992387481543 131.75685922887621 -311.37479169969151
leaf_weight=40649 6470 133862 860 8386 132455 34659 29867 81555 10726 159799 3230 36189 7200 3075 33277 11718 1154 89842 27998 26831 9554 982 1061 35587 4340 1589 915 7523 11637 1779
leaf_count=40649 6470 133862 860 8386 132455 34659 29867 81555 10726 159799 3230 36189 7200 3075 33277 11718 1154 89842 27998 26831 9554 982 1061 35587 4340 1589 915 7523 11637 1779
internal_value=5.96613e-07 -65.8429 103.488 248.024 -25.9622 75.5479 206.436 -45.6708 6.49904 -61.8154 421.753 61.1796 84.1414 264.287 65.68 106.035 20.6574 54.8623 79.3657 27.48 -36.2601 -61.2498 -52.8743 5.47754 42.62 -95.0594 64.9832 -23.3009 154.162 72.9963
internal_weight=954769 583515 371254 60141 449653 311113 48525 316044 74690 241354 11616 263038 15583 32942 256568 22444 133609 223291 117840 105451 52246 42692 41710 78620 42431 5929 36502 8383 48075 13416
internal_count=954769 583515 371254 60141 449653 311113 48525 316044 74690 241354 11616 263038 15583 32942 256568 22444 133609 223291 117840 105451 52246 42692 41710 78620 42431 5929 36502 8383 48075 13416
is_linear=0
shrinkage=0.1


Tree=11
num_leaves=31
num_cat=0
split_feature=13 13 12 11 13 13 11 11 7 12 1 4 12 5 4 12 7 12 12 4 2 2 12 11 2 12 4 4 13 4
split_gain=5.29748e+11 1.81581e+11 1.7264e+11 5.33887e+10 4.10464e+10 2.92888e+10 2.26952e+10 2.51051e+10 2.03752e+10 2.70144e+10 2.02773e+10 1.93128e+10 1.48468e+10 1.42704e+10 1.32531e+10 1.17306e+10 1.13687e+10 2.36132e+10 1.10762e+10 1.2949e+10 1.10886e+10 1.1542e+10 1.08609e+10 1.04321e+10 1.0115e+10 1.00692e+10 9.76559e+09 9.35324e+09 9.19743e+09 8.97493e+09
threshold=5157.5000000000009 10016.500000000002 2752.5000000000005 15106.500000000002 7458.5000000000009 1.0000000180025095e-35 1.0000000180025095e-35 8868.5000000000018 1.0000000180025095e-35 12088.500000000002 5.5000000000000009 1.5000000000000002 9996.5000000000018 1.5000000000000002 29.500000000000004 6049.5000000000009 1.0000000180025095e-35 9004.5000000000018 9996.5000000000018 1.5000000000000002 5.5000000000000009 4.5000000000000009 13509.500000000002 4859.5000000000009 11.500000000000002 18742.000000000004 26.500000000000004 2.5000000000000004 4301.5000000000009 8.5000000000000018
decision_type=2 2 2 2 2 2 2 2 2 2 2 2 2 2 2 2 2 2 2 2 2 2 2 2 2 2 2 2 2 2
left_child=2 4 10 6 16 12 8 15 11 24 23 -3 27 -6 29 -8 26 -18 19 20 21 -9 -5 -1 -10 -13 -2 -4 -7 -15
right_child=1 3 5 22 13 28 7 18 9 -11 -12 25 -14 14 -16 -17 17 -19 -20 -21 -22 -23 -24 -25 -26 -27 -28 -29 -30 -31
leaf_value=-123.26838662444162 -17.385621929423912 -618.75550993196259 313.4935181957544 274.64936842626997 -120.34350120352094 -66.327965487141682 -191.1255220938842 216.30196667901401 221.46247212819517 668.20036680742635 -178.84453675421935 81.954113642674258 222.12703749197431 113.98612361280205 210.73254870165454 44.482236770676899 22.539379944638554 194.73913345356445 214.6856970591854 124.02524568765676 266.86924055449816 -828.66223470052091 450.08728494600859 45.054807278713547 493.04902559916184 377.68013502780497 51.307569604890546 15.222566971815287 -24.507927371017569 58.936543208083883
leaf_weight=9623 128558 364 1103 7069 3682 110295 2521 145 21670 1563 146266 8217 4802 39433 7269 13064 116776 8546 17853 22918 245 390 7046 5964 1464 1339 24666 22444 100516 118958
leaf_count=9623 128558 364 1103 7069 3682 110295 2521 145 21670 1563 146266 8217 4802 39433 7269 13064 116776 8546 17853 22918 245 390 7046 5964 1464 1339 24666 22444 100516 118958
internal_value=-6.52612e-07 63.3878 -87.5317 181.17 35.5475 -33.5549 153.317 114.605 217.212 265.834 -167.29 96.1596 61.8749 74.3732 78.701 6.37077 11.9434 34.2821 155.201 110.388 -290.297 -545.448 362.225 -58.8635 238.649 123.392 -6.32739 29.1943 -46.3879 72.6417
internal_weight=954769 553756 401013 105868 447888 239160 91753 57136 34617 24697 161853 9920 28349 169342 165660 15585 278546 125322 41551 23698 780 535 14115 15587 23134 9556 153224 23547 210811 158391
internal_count=954769 553756 401013 105868 447888 239160 91753 57136 34617 24697 161853 9920 28349 169342 165660 15585 278546 125322 41551 23698 780 535 14115 15587 23134 9556 153224 23547 210811 158391
is_linear=0
shrinkage=0.1


Tree=12
num_leaves=31
num_cat=0
split_feature=13 1 13 11 11 11 7 12 12 12 7 11 11 11 11 1 1 1 7 12 1 4 12 1 4 3 2 8 5 4
split_gain=4.31709e+11 1.78334e+11 1.18743e+11 3.9375e+10 2.64381e+10 2.4493e+10 1.75688e+10 2.32698e+10 2.24547e+10 1.75369e+10 1.65499e+10 2.62483e+10 1.42773e+10 2.059e+10 1.31574e+10 1.30239e+10 1.27003e+10 1.23346e+10 1.22716e+10 1.34021e+10 1.13666e+10 1.11429e+10 1.08846e+10 1.59584e+10 2.37346e+10 3.05366e+10 2.0732e+10 1.47319e+10 1.86454e+10 1.05006e+10
threshold=5962.5000000000009 6.5000000000000009 10505.500000000002 16442.000000000004 7717.5000000000009 8669.5000000000018 1.0000000180025095e-35 10889.500000000002 12088.500000000002 3593.5000000000005 1.0000000180025095e-35 1.0000000180025095e-35 1.0000000180025095e-35 5326.5000000000009 12135.000000000002 1.5000000000000002 4.5000000000000009 5.5000000000000009 1.0000000180025095e-35 10889.500000000002 5.5000000000000009 1.5000000000000002 9166.5000000000018 4.5000000000000009 3.5000000000000004 2014.5000000000002 9.5000000000000018 1.0000000180025095e-35 16.500000000000004 1.5000000000000002
decision_type=2 2 2 2 2 2 2 2 2 2 2 2 2 2 2 2 2 2 2 2 2 2 2 2 2 2 2 2 2 2
left_child=1 4 5 6 9 12 7 16 15 -1 -11 -12 18 -14 -6 -8 -4 -9 20 -20 21 -2 23 -7 25 26 -25 -26 -29 -17
right_child=2 -3 3 -5 14 22 8 17 -10 10 11 -13 13 -15 -16 29 -18 -19 19 -21 -22 -23 -24 24 27 -27 -28 28 -30 -31
leaf_value=-81.275377907268719 -396.91301973569369 -162.22159251637794 -111.39603787520076 366.9269093772964 43.279275980281717 100.82517932062692 231.3038340322201 118.88981506828924 435.48126411863177 -39.242801953143641 145.69779614761501 -11.595604897818539 -65.019358944648985 29.600903972038012 319.37946026588401 -270.74260500716019 93.883468867720765 306.13089323737825 94.14652122648171 375.69747620187286 228.76670104076939 15.323897629619474 149.63468583875556 88.555439116162148 79.315970033200529 -663.55739917364497 -557.49882995701898 -576.28494297159784 122.49508539290471 132.24918736744436
leaf_weight=67991 671 133680 6347 9620 30364 50813 19808 15220 3499 201738 12920 59316 26659 167462 1830 666 5739 4576 36835 1772 2482 28756 23057 2307 15183 1123 633 808 724 22170
leaf_count=67991 671 133680 6347 9620 30364 50813 19808 15220 3499 201738 12920 59316 26659 167462 1830 666 5739 4576 36835 1772 2482 28756 23057 2307 15183 1123 633 808 724 22170
internal_value=3.90283e-07 -63.0817 71.6786 176.04 -27.6608 46.2204 152.505 95.4182 191.948 -35.817 -24.5357 16.5376 30.6058 16.6065 58.9736 171.966 -13.9197 162.172 69.1438 107.069 23.2575 5.92399 89.8792 70.634 -3.19914 -219.979 -50.544 49.4946 -246.052 120.496
internal_weight=954769 507839 446930 87645 374159 359285 78025 31882 46143 341965 273974 72236 264637 194121 32194 42644 12086 19796 70516 38607 31909 29427 94648 71591 20778 4063 2940 16715 1532 22836
internal_count=954769 507839 446930 87645 374159 359285 78025 31882 46143 341965 273974 72236 264637 194121 32194 42644 12086 19796 70516 38607 31909 29427 94648 71591 20778 4063 2940 16715 1532 22836
is_linear=0
shrinkage=0.1


Tree=13
num_leaves=31
num_cat=0
split_feature=13 13 12 12 7 1 13 12 11 4 7 11 5 4 4 12 5 4 2 2 1 5 4 12 5 1 2 4 5 5
split_gain=3.5383e+11 1.36988e+11 9.45696e+10 4.78024e+10 2.76555e+10 2.90034e+10 2.63994e+10 2.59058e+10 2.14662e+10 1.9807e+10 1.96276e+10 1.54395e+10 1.90002e+10 1.36158e+10 1.42759e+10 1.30526e+10 1.2871e+10 1.2035e+10 1.33174e+10 4.01078e+10 1.09297e+10 1.05107e+10 1.0198e+10 1.01367e+10 9.84987e+09 9.46506e+09 8.26228e+09 8.1593e+09 7.87501e+09 8.63785e+09
threshold=4657.5000000000009 8869.5000000000018 2543.5000000000005 15683.000000000002 1.0000000180025095e-35 4.5000000000000009 1.0000000180025095e-35 8899.5000000000018 6836.5000000000009 1.5000000000000002 1.0000000180025095e-35 1.0000000180025095e-35 51.500000000000007 5.5000000000000009 29.500000000000004 14189.500000000002 47.500000000000007 1.5000000000000002 4.5000000000000009 5.5000000000000009 5.5000000000000009 47.500000000000007 29.500000000000004 10310.500000000002 1.5000000000000002 5.5000000000000009 10.500000000000002 26.500000000000004 47.500000000000007 51.500000000000007
decision_type=2 2 2 2 2 2 2 2 2 2 2 2 2 2 2 2 2 2 2 2 2 2 2 2 2 2 2 2 2 2
left_child=2 8 25 4 5 9 15 16 11 -3 20 13 24 -2 -15 -4 22 18 -10 -20 -5 -9 -6 -11 -13 -1 -21 -26 -19 -30
right_child=1 3 6 10 7 -7 -8 21 17 23 -12 12 -14 14 -16 -17 -18 28 19 26 -22 -23 -24 -25 27 -27 -28 -29 29 -31
leaf_value=-50.924141544300042 118.688928481109 -330.16040912298968 41.963154103095995 184.6215618541585 88.258300159958836 128.92408556048193 -50.071235809850805 208.1167828582976 99.262308119297344 -63.37893674537802 521.16184778926777 -205.14663394679084 -352.05316647074437 3.2226500624257968 199.97879578064968 413.74015271190729 257.78084454907719 42.326125693669496 -604.12106353000274 73.063586695325228 455.34766576030671 422.18429813888508 251.32786420916159 58.457792011620683 -18.139987881550571 -147.00236582934096 -308.78425510616279 40.39456767625483 138.17276385721718 -67.216225312069767
leaf_weight=11046 16239 1878 27446 7742 61973 25942 155213 20927 2885 12097 3249 2617 1661 57786 3939 978 5484 149011 1509 3149 1847 2576 4088 15680 168142 142922 691 27743 15960 2349
leaf_count=11046 16239 1878 27446 7742 61973 25942 155213 20927 2885 12097 3249 2617 1661 57786 3939 978 5484 149011 1509 3149 1847 2576 4088 15680 168142 142922 691 27743 15960 2349
internal_value=-1.50208e-07 45.0249 -82.3084 123.509 107.723 51.7012 -33.8458 140.493 16.7433 -15.8529 308.741 -0.538338 -15.2429 37.2137 15.7787 54.7551 110.57 44.1224 -73.9057 -167.304 236.768 231.579 98.3494 5.39739 -12.4245 -140.11 4.35086 -9.8498 49.9307 111.822
internal_weight=954769 617164 337605 163483 150645 55597 183637 95048 453681 29655 12838 278127 200163 77964 61725 28424 71545 175554 8234 5349 9589 23503 66061 27777 198502 153968 3840 195885 167320 18309
internal_count=954769 617164 337605 163483 150645 55597 183637 95048 453681 29655 12838 278127 200163 77964 61725 28424 71545 175554 8234 5349 9589 23503 66061 27777 198502 153968 3840 195885 167320 18309
is_linear=0
shrinkage=0.1


Tree=14
num_leaves=31
num_cat=0
split_feature=13 1 13 12 11 7 7 13 5 4 5 4 13 4 4 12 1 11 7 4 1 1 8 5 4 3 1 5 5 12
split_gain=2.91179e+11 1.35599e+11 6.91959e+10 2.74204e+10 2.30032e+10 2.27298e+10 1.74477e+10 1.65442e+10 1.29178e+10 1.42916e+10 1.25897e+10 1.25874e+10 1.08885e+10 1.07823e+10 9.0606e+09 8.62523e+09 8.36907e+09 8.30219e+09 8.5561e+09 1.42926e+10 8.19162e+09 8.10336e+09 2.32456e+10 3.06228e+10 1.24453e+10 1.14357e+10 1.2041e+10 7.41545e+09 7.26871e+09 7.07461e+09
threshold=6699.5000000000009 6.5000000000000009 12947.500000000002 6939.5000000000009 10820.500000000002 1.0000000180025095e-35 1.0000000180025095e-35 20705.500000000004 2.5000000000000004 26.500000000000004 4.5000000000000009 8.5000000000000018 4021.5000000000005 1.5000000000000002 29.500000000000004 1.0000000180025095e-35 4.5000000000000009 4362.5000000000009 1.0000000180025095e-35 1.5000000000000002 4.5000000000000009 4.5000000000000009 1.0000000180025095e-35 16.500000000000004 3.5000000000000004 2013.5000000000002 5.5000000000000009 47.500000000000007 12.500000000000002 17411.000000000004
decision_type=2 2 2 2 2 2 2 2 2 2 2 2 2 2 2 2 2 2 2 2 2 2 2 2 2 2 2 2 2 2
left_child=1 3 4 6 8 -5 12 10 13 11 -4 17 -1 -2 27 -3 -14 18 19 -10 -21 -6 24 28 25 -23 -27 -12 -24 -13
right_child=2 15 7 5 21 -7 -8 -9 9 -11 14 29 16 -15 -16 -17 -18 -19 -20 20 -22 22 23 -25 -26 26 -28 -29 -30 -31
leaf_value=-78.098706152010948 -318.34391408471129 -134.07637059998484 42.319969767060037 1.261907158425688 147.12743198775561 106.69763635815036 -4.185607375108372 426.70945724646776 -363.68530981766207 110.67502748555231 178.51306265595946 26.58128324760261 -62.111071885416429 -22.519980090260859 480.23871980083334 93.742571703281286 -8.8267237372370513 55.724085204407629 188.20723543763361 33.420101308047961 335.8431021898985 196.37360334879793 232.60634055318712 175.40771616557527 153.07118707132611 -676.40130779914136 -18.627445239337231 344.09818731381171 -771.00940997171756 275.21563233153688
leaf_weight=82762 1418 132228 5357 96466 34056 25946 138894 3032 760 34021 23341 173601 50564 9398 1186 1683 70680 35442 11917 4025 1152 651 79 759 9190 530 586 3059 834 1152
leaf_count=82762 1418 132228 5357 96466 34056 25946 138894 3032 760 34021 23341 173601 50564 9398 1186 1683 70680 35442 11917 4025 1152 651 79 759 9190 530 586 3059 834 1152
internal_value=-7.35897e-07 -42.5387 71.6931 -17.0194 56.8915 23.6097 -31.5235 203.178 45.7944 50.2145 182.605 41.1948 -50.1361 -61.3031 209.847 -131.213 -31.0486 83.737 139.345 41.2677 100.716 121.757 53.341 -293.966 106.339 -136.711 -331.011 197.7 -684.169 28.2203
internal_weight=954769 599223 355546 465312 319571 122412 342900 35975 272886 262070 32943 228049 204006 10816 27586 133911 121244 53296 17854 5937 5177 46685 12629 1672 10957 1767 1116 26400 913 174753
internal_count=954769 599223 355546 465312 319571 122412 342900 35975 272886 262070 32943 228049 204006 10816 27586 133911 121244 53296 17854 5937 5177 46685 12629 1672 10957 1767 1116 26400 913 174753
is_linear=0
shrinkage=0.1


Tree=15
num_leaves=31
num_cat=0
split_feature=13 1 12 7 7 12 1 12 7 4 11 5 1 2 4 2 2 13 11 12 12 4 12 12 12 2 5 12 12 5
split_gain=2.37097e+11 1.18649e+11 5.19057e+10 2.65593e+10 2.62504e+10 2.93258e+10 2.73827e+10 2.57161e+10 2.0455e+10 1.96697e+10 1.77986e+10 1.21557e+10 1.2065e+10 9.49335e+09 8.82564e+09 9.59821e+09 2.46985e+10 8.69638e+09 8.51167e+09 8.35739e+09 8.3447e+09 8.15038e+09 7.21841e+09 6.67529e+09 6.59005e+09 6.43488e+09 6.35442e+09 6.18544e+09 6.08745e+09 5.91917e+09
threshold=7153.5000000000009 6.5000000000000009 13509.500000000002 1.0000000180025095e-35 1.0000000180025095e-35 7482.5000000000009 4.5000000000000009 7546.5000000000009 1.0000000180025095e-35 1.5000000000000002 5350.5000000000009 47.500000000000007 5.5000000000000009 10.500000000000002 1.5000000000000002 4.5000000000000009 5.5000000000000009 4088.5000000000005 5587.5000000000009 9339.5000000000018 8074.5000000000009 29.500000000000004 1.0000000180025095e-35 10068.500000000002 20859.000000000004 10.500000000000002 4.5000000000000009 1.0000000180025095e-35 15683.000000000002 47.500000000000007
decision_type=2 2 2 2 2 2 2 2 2 2 2 2 2 2 2 2 2 2 2 2 2 2 2 2 2 2 2 2 2 2
left_child=1 7 4 12 6 13 9 10 28 -2 17 18 -4 21 15 -12 -17 -1 26 -11 -8 -6 -3 -10 -14 -18 -7 -16 -9 -29
right_child=2 22 3 -5 5 11 20 8 23 19 14 -13 24 -15 27 16 25 -19 -20 -21 -22 -23 -24 -25 -26 -27 -28 29 -30 -31
leaf_value=-65.885857858157024 -294.96040002681929 -120.72256567063016 114.01409636350593 382.36090485576091 39.5551058850007 35.864468032851214 25.578150036566914 5.7914632570581963 83.02715084050557 -57.200821079926641 43.809343110686513 286.93385434625816 270.89604071754957 138.48662894314015 86.702068323486998 -526.68829701196091 22.31576443306583 -25.899104805339931 108.1903754593577 22.199244363358115 105.71941670928484 151.60606063765948 80.176881264154247 206.19127468097463 710.51532665863635 -279.73569801536405 249.29793916028507 -5.8545717552263534 280.58639053566156 64.340182252318499
leaf_weight=94693 2613 132244 16543 6482 97808 1682 22027 83642 16930 24347 2950 5550 3044 12717 8564 1492 3001 127782 36673 29102 31678 6953 1813 5946 384 922 8173 155179 814 13021
leaf_count=94693 2613 132244 16543 6482 97808 1682 22027 83642 16930 24347 2950 5550 3044 12717 8564 1492 3001 127782 36673 29102 31678 6953 1813 5946 384 922 8173 155179 814 13021
internal_value=-9.17394e-08 -34.2055 72.5993 206.481 59.9201 84.5859 21.8192 -12.3892 31.16 -27.0657 -23.8568 147.048 149.396 56.8962 -0.949309 -101.318 -180.381 -42.9188 130.362 -13.9689 72.8496 46.9919 -118.006 115.04 320.142 -48.6736 212.87 3.80045 8.43998 -0.42053
internal_weight=954769 648993 305776 26453 279323 169556 109767 514936 107332 56062 407604 52078 19971 117478 185129 8365 5415 222475 46528 53449 53705 104761 134057 22876 3428 3923 9855 176764 84456 168200
internal_count=954769 648993 305776 26453 279323 169556 109767 514936 107332 56062 407604 52078 19971 117478 185129 8365 5415 222475 46528 53449 53705 104761 134057 22876 3428 3923 9855 176764 84456 168200
is_linear=0
shrinkage=0.1


Tree=16
num_leaves=31
num_cat=0
split_feature=12 7 13 12 12 1 11 11 5 12 4 2 2 12 12 12 11 1 8 5 11 11 4 4 1 2 1 5 4 11
split_gain=1.94123e+11 8.08757e+10 6.70086e+10 5.93073e+10 4.02215e+10 3.34096e+10 2.08153e+10 1.52504e+10 1.87239e+10 1.47938e+10 1.35936e+10 2.25385e+10 4.24029e+10 1.31833e+10 1.28319e+10 1.1244e+10 1.09077e+10 1.24458e+10 1.74878e+10 8.9183e+09 1.55359e+10 8.89029e+09 9.03849e+09 8.73519e+09 8.55355e+09 7.73009e+09 7.68805e+09 6.70796e+09 7.80788e+09 7.0217e+09
threshold=5269.5000000000009 1.0000000180025095e-35 2755.5000000000005 10671.500000000002 12088.500000000002 4.5000000000000009 3496.5000000000005 1.0000000180025095e-35 1.5000000000000002 1.0000000180025095e-35 1.5000000000000002 5.5000000000000009 4.5000000000000009 18742.000000000004 17411.000000000004 7451.5000000000009 12135.000000000002 4.5000000000000009 1.0000000180025095e-35 51.500000000000007 1788.5000000000002 4628.5000000000009 1.5000000000000002 26.500000000000004 4.5000000000000009 4.5000000000000009 6.5000000000000009 51.500000000000007 26.500000000000004 1788.5000000000002
decision_type=2 2 2 2 2 2 2 2 2 2 2 2 2 2 2 2 2 2 2 2 2 2 2 2 2 2 2 2 2 2
left_child=2 4 -1 6 5 21 -3 -4 -9 -10 11 12 -8 24 -5 -7 -12 -18 -19 20 -17 22 -2 -21 -6 -20 -15 29 -29 -26
right_child=1 3 7 14 13 15 10 8 9 -11 16 -13 -14 26 -16 19 17 18 25 23 -22 -23 -24 -25 27 -27 -28 28 -30 -31
leaf_value=-101.46178039239481 -367.59787073951071 136.76464902209952 36.670930101182499 223.41953380539846 56.364008851532937 11.815934156014329 237.37084987132977 -227.15019794929106 67.305537264967811 -33.19509432778645 48.71507631119065 157.75222710876508 -599.88235127409996 239.56907862854743 488.72482277748315 309.6793260425892 160.73736908551194 109.61787746282474 -745.67178685862552 -490.97258271472333 69.471231442689785 -9.2012030595219816 -49.838914182214275 -10.691324560121171 655.86038519560407 181.97297962291822 884.41448313658714 -618.76935325985869 87.169439569439263 186.52144607528194
leaf_weight=162640 905 38137 40981 18784 24326 63490 936 4709 15863 191041 123527 1764 1710 4398 2019 2862 15767 1095 471 505 45472 101485 82325 1514 335 111 193 210 617 6577
leaf_count=162640 905 38137 40981 18784 24326 63490 936 4709 15863 191041 123527 1764 1710 4398 2019 2862 15767 1095 471 505 45472 101485 82325 1514 335 111 193 210 617 6577
internal_value=-5.07373e-07 39.5573 -51.3988 89.1484 9.33031 -2.80711 71.0091 -19.1643 -29.9774 -25.4899 53.7598 -119.126 -303.711 108.188 249.168 39.8036 59.1681 133.19 -125.808 75.0932 83.6947 -29.0688 -53.2941 -130.821 85.4956 -568.75 266.678 177.065 -92.0895 209.269
internal_weight=954769 539535 415234 204321 335214 298558 183518 252594 211613 206904 145381 4410 2646 36656 20803 113843 140971 17444 1677 50353 48334 184715 83230 2019 32065 582 4591 7739 827 6912
internal_count=954769 539535 415234 204321 335214 298558 183518 252594 211613 206904 145381 4410 2646 36656 20803 113843 140971 17444 1677 50353 48334 184715 83230 2019 32065 582 4591 7739 827 6912
is_linear=0
shrinkage=0.1


Tree=17
num_leaves=31
num_cat=0
split_feature=12 7 7 12 12 1 13 11 5 4 11 4 2 2 11 12 12 11 4 2 2 5 11 4 12 1 4 12 4 5
split_gain=1.58546e+11 6.83374e+10 6.5023e+10 4.30296e+10 2.97152e+10 2.74511e+10 2.20787e+10 1.50538e+10 1.07242e+10 8.93499e+09 8.88987e+09 9.9071e+09 1.19226e+10 2.95562e+10 1.07397e+10 8.70142e+09 8.37622e+09 8.12556e+09 7.95148e+09 1.65544e+10 2.95379e+10 7.76949e+09 1.43517e+10 1.00481e+10 7.74639e+09 7.28054e+09 7.70273e+09 6.98909e+09 6.93088e+09 6.80554e+09
threshold=5811.5000000000009 1.0000000180025095e-35 1.0000000180025095e-35 11346.500000000002 13214.500000000002 4.5000000000000009 2432.5000000000005 3664.5000000000005 47.500000000000007 28.500000000000004 1.0000000180025095e-35 1.5000000000000002 5.5000000000000009 4.5000000000000009 5517.5000000000009 20859.000000000004 17411.000000000004 11666.500000000002 1.5000000000000002 5.5000000000000009 4.5000000000000009 51.500000000000007 1788.5000000000002 26.500000000000004 8348.5000000000018 4.5000000000000009 1.5000000000000002 8952.5000000000018 29.500000000000004 3.5000000000000004
decision_type=2 2 2 2 2 2 2 2 2 2 2 2 2 2 2 2 2 2 2 2 2 2 2 2 2 2 2 2 2 2
left_child=1 6 4 7 5 24 -1 29 18 21 -3 12 13 -12 -13 -6 -5 -16 19 20 -9 22 -7 -23 -2 26 -8 -24 -20 -4
right_child=2 10 3 16 15 9 25 8 -10 -11 11 14 -14 -15 17 -17 -18 -19 28 -21 -22 23 27 -25 -26 -27 -28 -29 -30 -31
leaf_value=-97.965906116303657 -39.090926732058591 46.417068175733768 -28.520488763297948 221.55100035720312 99.457972991197153 217.05864837685397 -239.4313173524844 250.25914965475027 153.06194984344188 145.01327223332456 78.751205789191943 -42.030225901965899 30.826013094620397 -510.64377479710214 11.79616716144568 303.20672696736983 439.85234016590397 176.53200853721802 48.717950204984817 172.97960056842379 -563.05898342307557 -448.73487974793761 16.5630847882321 -17.837126945807981 2.946182183297021 -24.943846108726706 -63.159759142701319 83.50615597529746 172.90120917278131 149.1783387533153
leaf_weight=147656 93432 41501 2324 13579 22630 4477 2606 678 11012 8413 1513 44249 2598 1944 103924 2310 2019 3083 100359 1306 1308 715 62505 2226 82582 87779 50877 20781 4705 29678
leaf_count=147656 93432 41501 2324 13579 22630 4477 2606 678 11012 8413 1513 44249 2598 1944 103924 2310 2019 3083 100359 1306 1308 715 62505 2226 82582 87779 50877 20781 4705 29678
internal_value=-3.04335e-07 -39.8763 41.6429 91.6639 13.8098 4.33536 -70.9272 75.3679 59.0393 46.4283 5.24746 -5.6137 -131.041 -252.688 -0.592654 118.33 249.808 16.5424 49.484 -103.552 -285.401 37.2843 42.642 -122.595 -19.368 -42.6646 -71.7487 33.2663 54.2792 136.274
internal_weight=954769 487730 467039 166968 300071 275131 288918 151370 119368 99117 198812 157311 6055 3457 151256 24940 15598 107007 108356 3292 1986 90704 87763 2941 176014 141262 53483 83286 105064 32002
internal_count=954769 487730 467039 166968 300071 275131 288918 151370 119368 99117 198812 157311 6055 3457 151256 24940 15598 107007 108356 3292 1986 90704 87763 2941 176014 141262 53483 83286 105064 32002
is_linear=0
shrinkage=0.1


Tree=18
num_leaves=31
num_cat=0
split_feature=13 12 11 4 7 12 11 11 13 7 12 11 12 5 1 11 4 4 5 5 4 12 7 4 12 5 1 3 11 1
split_gain=1.29607e+11 6.9593e+10 2.87831e+10 1.45336e+10 1.32869e+10 1.41726e+10 1.31618e+10 1.5995e+10 1.58829e+10 1.07975e+10 8.76806e+09 8.25601e+09 8.21279e+09 7.89775e+09 7.65188e+09 6.96595e+09 6.79823e+09 8.09051e+09 6.71837e+09 6.64268e+09 6.54798e+09 6.7965e+09 6.12745e+09 1.02941e+10 6.24561e+09 5.76434e+09 1.26115e+10 5.76086e+09 5.75508e+09 6.23524e+09
threshold=7333.5000000000009 3365.5000000000005 13508.500000000002 29.500000000000004 1.0000000180025095e-35 8899.5000000000018 1.0000000180025095e-35 6463.5000000000009 13197.500000000002 1.0000000180025095e-35 6503.5000000000009 20881.500000000004 8074.5000000000009 51.500000000000007 4.5000000000000009 5994.5000000000009 5.5000000000000009 29.500000000000004 51.500000000000007 2.5000000000000004 6.5000000000000009 16430.500000000004 1.0000000180025095e-35 1.5000000000000002 15683.000000000002 51.500000000000007 3.5000000000000004 2014.5000000000002 2430.5000000000005 1.5000000000000002
decision_type=2 2 2 2 2 2 2 2 2 2 2 2 2 2 2 2 2 2 2 2 2 2 2 2 2 2 2 2 2 2
left_child=1 9 6 4 10 28 8 13 16 -1 14 -4 19 -8 -3 -11 -2 20 -14 -9 27 -22 23 -10 -24 -23 -27 -18 29 -6
right_child=2 3 11 -5 5 -7 7 12 22 15 -12 -13 18 -15 -16 -17 17 -19 -20 -21 21 25 24 -25 -26 26 -28 -29 -30 -31
leaf_value=-84.050578695981699 126.12631239872765 -61.416945189535504 138.27229184781768 77.821040999238448 33.741404632232246 119.48813542898786 -31.976529766884905 -121.04533710060112 -900.12109328497036 -50.551601348930227 -1.8444645451902937 327.81584934629404 72.536338974698282 -461.05280793784959 -15.752193381170969 51.042073734911128 -96.622492871926042 193.25038732406426 -212.60207741025602 29.023976837665902 32.200487658601951 122.51189713125433 212.48537929011241 105.64127416776196 585.31223158876435 832.06018583653338 -350.53363170781415 -680.51235225716823 0.05989167321816611 189.21546912785925
leaf_weight=166248 12915 67967 23172 21184 15563 12272 26634 3054 105 23552 140124 2551 71420 436 79753 9460 1310 3397 836 86263 41659 1271 8018 3303 476 354 121 194 128065 3092
leaf_count=166248 12915 67967 23172 21184 15563 12272 26634 3054 105 23552 140124 2551 71420 436 79753 9460 1310 3397 836 86263 41659 1271 8018 3303 476 354 121 194 128065 3092
internal_value=2.49014e-07 -24.1837 56.1318 -3.11163 -6.94855 16.2536 46.2129 32.2522 82.2289 -73.6775 -19.7644 157.07 44.1709 -38.8874 -36.7629 -21.4387 61.6796 44.4492 69.2373 23.8927 33.1936 40.3015 187.929 74.6539 233.378 233.59 530.81 -171.938 7.61888 59.5107
internal_weight=954769 667280 287489 468020 446836 158992 261766 188643 73123 199260 287844 25723 161573 27070 147720 33012 61221 48306 72256 89317 44909 43405 11902 3408 8494 1746 475 1504 146720 18655
internal_count=954769 667280 287489 468020 446836 158992 261766 188643 73123 199260 287844 25723 161573 27070 147720 33012 61221 48306 72256 89317 44909 43405 11902 3408 8494 1746 475 1504 146720 18655
is_linear=0
shrinkage=0.1


Tree=19
num_leaves=31
num_cat=0
split_feature=12 7 12 7 12 1 5 13 1 11 12 4 2 2 12 5 4 1 5 5 8 15 4 5 4 11 4 4 12 1
split_gain=1.08718e+11 4.58016e+10 3.60377e+10 3.40159e+10 2.48571e+10 1.99564e+10 1.23388e+10 1.11508e+10 1.11166e+10 9.79221e+09 9.08274e+09 8.2075e+09 1.46511e+10 2.79929e+10 7.79521e+09 7.69451e+09 3.21732e+10 7.55812e+09 1.03115e+10 1.77673e+10 1.01588e+10 1.11258e+10 7.22043e+09 6.85259e+09 9.38897e+09 8.05665e+09 6.18404e+09 5.86261e+09 5.8534e+09 5.74019e+09
threshold=5171.5000000000009 1.0000000180025095e-35 10148.500000000002 1.0000000180025095e-35 10994.500000000002 4.5000000000000009 47.500000000000007 2283.5000000000005 4.5000000000000009 3704.5000000000005 13837.500000000002 1.5000000000000002 5.5000000000000009 4.5000000000000009 1.0000000180025095e-35 51.500000000000007 23.500000000000004 1.5000000000000002 25.500000000000004 13.500000000000002 1.0000000180025095e-35 3715.178571428572 27.500000000000004 51.500000000000007 26.500000000000004 1.0000000180025095e-35 1.5000000000000002 29.500000000000004 7811.5000000000009 4.5000000000000009
decision_type=2 2 2 2 2 2 2 2 2 2 2 2 2 2 2 2 2 2 2 2 2 2 2 2 2 2 2 2 2 2
left_child=3 4 6 7 5 15 9 -1 26 -3 -4 12 13 -11 -5 17 -17 18 19 -2 21 -21 -7 25 -25 -10 -6 29 -19 -13
right_child=1 2 10 14 8 22 -8 -9 23 11 -12 27 -14 -15 -16 16 -18 28 -20 20 -22 -23 -24 24 -26 -27 -28 -29 -30 -31
leaf_value=-80.595018586542807 -19.595871344004824 89.10339109089503 141.8434421026474 57.187621078578324 -362.01429092610681 17.231810951420414 134.91035224632401 -37.62469988705967 531.51726009732204 182.68143682582468 278.90680851853182 43.010014552668466 118.39174062951545 -485.23871151676406 -11.144378246983978 299.70073345503664 -332.2896175022554 -29.196706124800116 -1.7187220604563018 -391.98314772288006 -401.33106431780169 -101.08353197042216 91.523487534615128 -544.23189454665317 81.160850541295133 152.04713830518489 45.942232125942908 128.44060997633923 14.028845111838066 -5.1054442962638751
leaf_weight=143482 11770 35163 19460 19041 375 97360 15651 104282 588 973 6433 89362 1813 1767 135486 1102 2994 78640 16537 1590 1977 7595 15113 317 989 11543 40664 6315 52071 34316
leaf_count=143482 11770 35163 19460 19041 375 97360 15651 104282 588 973 6433 89362 1813 1767 135486 1102 2994 78640 16537 1590 1977 7595 15113 317 989 11543 40664 6315 52071 34316
internal_value=-3.64927e-07 28.7948 65.3882 -39.5448 6.13983 -5.6242 49.9513 -62.5091 68.063 42.1161 175.896 29.8362 -102.136 -248.054 -2.72443 -26.8173 -162.257 -23.5575 -61.9088 -105.314 -195.701 -151.441 27.2144 147.009 -70.6382 170.44 42.2145 34.4585 -11.9771 29.6598
internal_weight=954769 552478 211253 402291 341225 286749 185360 247764 54476 169709 25893 134546 4553 2740 154527 174276 4096 170180 39469 22932 11162 9185 112473 13437 1306 12131 41039 129993 130711 123678
internal_count=954769 552478 211253 402291 341225 286749 185360 247764 54476 169709 25893 134546 4553 2740 154527 174276 4096 170180 39469 22932 11162 9185 112473 13437 1306 12131 41039 129993 130711 123678
is_linear=0
shrinkage=0.1


Tree=20
num_leaves=31
num_cat=0
split_feature=12 7 7 12 1 13 12 12 5 4 5 11 4 5 11 4 2 2 11 11 5 4 4 1 5 2 4 11 8 1
split_gain=9.15867e+10 3.91736e+10 3.70465e+10 2.35333e+10 1.95544e+10 1.28019e+10 1.16524e+10 1.03754e+10 1.02793e+10 8.50278e+09 7.30053e+09 1.58683e+10 8.87314e+09 6.84675e+09 6.17436e+09 8.24124e+09 1.00421e+10 2.45988e+10 7.96609e+09 6.56129e+09 6.10865e+09 3.28861e+10 6.78093e+09 6.57968e+09 1.0071e+10 1.60496e+10 9.39828e+09 6.08869e+09 5.90718e+09 5.37227e+09
threshold=6123.5000000000009 1.0000000180025095e-35 1.0000000180025095e-35 12264.500000000002 4.5000000000000009 2283.5000000000005 14597.500000000002 11611.500000000002 47.500000000000007 29.500000000000004 51.500000000000007 1.0000000180025095e-35 26.500000000000004 47.500000000000007 1.0000000180025095e-35 1.5000000000000002 5.5000000000000009 4.5000000000000009 5233.5000000000009 13221.500000000002 51.500000000000007 23.500000000000004 25.500000000000004 1.5000000000000002 25.500000000000004 3.5000000000000004 20.500000000000004 3742.5000000000005 1.0000000180025095e-35 4.5000000000000009
decision_type=2 2 2 2 2 2 2 2 2 2 2 2 2 2 2 2 2 2 2 2 2 2 2 2 2 2 2 2 2 2
left_child=1 5 4 8 7 -1 10 20 9 27 11 -6 -12 -5 -3 16 17 -16 -17 -20 22 -22 23 24 25 -2 28 -4 -27 -7
right_child=2 14 3 13 6 29 -8 -9 -10 -11 12 -13 -14 -15 15 18 -18 -19 19 -21 21 -23 -24 -25 -26 26 -28 -29 -30 -31
leaf_value=-72.213549875488965 -12.391629925680997 37.427456678437274 92.86976817697655 189.16582453939111 217.67088707258418 -53.916084378023243 218.07918936559773 44.853922867064796 148.79670088434918 177.57667921788712 -402.9540014743805 37.292458170291319 -11.323902765520092 447.01882734311141 71.834396463290645 -41.438210722647796 29.344746348018067 -442.75517341066274 9.4840219101228929 230.12019577551519 297.69322452666654 -309.00873045475498 30.939433989290059 -9.3227604470626382 3.1584755431546809 -120.02915318886322 -429.57342083865655 37.424413814988682 -346.30487554282473 -16.907139440954108
leaf_weight=145869 9170 45420 25195 9777 5181 64771 3946 32935 12881 5403 768 83145 2345 1151 1638 35824 2818 2146 129570 1362 1256 3095 27672 85289 13910 7366 1460 92595 1368 99443
leaf_count=145869 9170 45420 25195 9777 5181 64771 3946 32935 12881 5403 768 83145 2345 1151 1638 35824 2818 2146 129570 1362 1256 3095 27672 85289 13910 7366 1460 92595 1368 99443
internal_value=-1.36184e-07 -27.7942 34.5128 75.1368 13.1012 -50.6549 49.8291 -5.9881 63.7981 54.9107 42.5684 47.873 -107.942 216.324 4.60717 -3.99179 -113.571 -220.002 0.34653 11.7792 -17.1079 -133.873 -13.6337 -24.0369 -61.7525 -108.381 -194.728 49.284 -155.471 -31.5046
internal_weight=954769 528861 425908 147002 278906 310083 95385 183521 136074 123193 91439 88326 3113 10928 218778 173358 6602 3784 166756 130932 150586 4351 146235 118563 33274 19364 10194 117790 8734 164214
internal_count=954769 528861 425908 147002 278906 310083 95385 183521 136074 123193 91439 88326 3113 10928 218778 173358 6602 3784 166756 130932 150586 4351 146235 118563 33274 19364 10194 117790 8734 164214
is_linear=0
shrinkage=0.1


Tree=21
num_leaves=31
num_cat=0
split_feature=12 7 7 12 1 13 12 12 5 4 4 5 4 12 12 5 11 5 11 4 5 11 4 11 4 1 2 5 5 2
split_gain=7.48282e+10 3.43765e+10 2.968e+10 1.7954e+10 1.6009e+10 1.14565e+10 9.29818e+09 8.80148e+09 8.54601e+09 7.09979e+09 5.53478e+09 5.49428e+09 5.44653e+09 5.36157e+09 5.71171e+09 5.35931e+09 6.45101e+09 5.2277e+09 5.18113e+09 5.15249e+09 5.10291e+09 1.13027e+10 5.58805e+09 5.0354e+09 5.41025e+09 3.07282e+10 6.74132e+09 6.57154e+09 5.36347e+09 8.798e+09
threshold=6422.5000000000009 1.0000000180025095e-35 1.0000000180025095e-35 12942.000000000002 4.5000000000000009 2432.5000000000005 12708.500000000002 17411.000000000004 47.500000000000007 29.500000000000004 29.500000000000004 47.500000000000007 29.500000000000004 1.0000000180025095e-35 4609.5000000000009 2.5000000000000004 1.0000000180025095e-35 2.5000000000000004 2083.5000000000005 29.500000000000004 51.500000000000007 1.0000000180025095e-35 26.500000000000004 3890.5000000000005 28.500000000000004 4.5000000000000009 3.5000000000000004 12.500000000000002 18.500000000000004 4.5000000000000009
decision_type=2 2 2 2 2 2 2 2 2 2 2 2 2 2 2 2 2 2 2 2 2 2 2 2 2 2 2 2 2 2
left_child=1 5 4 8 7 -1 20 10 9 23 -2 12 13 -3 17 16 -7 -15 -5 -17 21 -6 -22 -4 26 -26 27 -25 29 -28
right_child=2 11 3 18 6 15 -8 -9 -10 -11 -12 -13 -14 14 -16 19 -18 -19 -20 -21 22 -23 -24 24 25 -27 28 -29 -30 -31
leaf_value=-64.515326099727176 -10.866474150997913 49.330654165348662 90.427002961976555 344.61536464136225 197.35421626533406 49.797016495549059 158.4845028013757 125.29881162740983 143.98121025157158 176.52191620851303 86.583119059805142 70.353890959995852 66.423028607510545 120.35526714620096 8.9516956738903364 -27.209198822705982 -143.5358971649456 -29.929322955380975 166.88101636584418 48.209605807930039 -350.53766732872077 34.595579409897447 -13.873615385631414 70.84003554429728 118.70529658162873 -706.87478805034175 -3.8145810382163869 270.30886731581256 36.033419516305209 -267.83306886970763
leaf_weight=149367 161137 18917 22837 2204 4535 2240 7161 5157 11748 4549 6047 12541 12518 2381 106791 161450 7520 83037 6411 9597 654 72121 2003 22579 1579 631 7489 1782 46268 1518
leaf_count=149367 161137 18917 22837 2204 4535 2240 7161 5157 11748 4549 6047 12541 12518 2381 106791 161450 7520 83037 6411 9597 654 72121 2003 22579 1579 631 7489 1782 46268 1518
internal_value=4.75585e-08 -23.1837 33.8053 72.8702 14.2445 -44.0209 49.3551 -3.37271 62.9378 54.2215 -7.34175 5.94561 2.33387 -1.46608 -6.46543 -27.0902 -99.1644 -25.7402 212.351 -22.9776 39.5021 44.2244 -96.7409 48.9069 37.3218 -117.015 41.6048 85.4311 22.2896 -48.3111
internal_weight=954769 566359 388410 129595 258815 330174 86474 172341 120980 109232 167184 236185 223644 211126 192209 180807 9760 85418 8615 171047 79313 76656 2657 104683 81846 2210 79636 24361 55275 9007
internal_count=954769 566359 388410 129595 258815 330174 86474 172341 120980 109232 167184 236185 223644 211126 192209 180807 9760 85418 8615 171047 79313 76656 2657 104683 81846 2210 79636 24361 55275 9007
is_linear=0
shrinkage=0.1


Tree=22
num_leaves=31
num_cat=0
split_feature=12 7 7 13 1 4 4 2 5 12 1 5 8 5 3 11 1 12 4 15 13 11 12 5 2 2 11 4 11 12
split_gain=6.28329e+10 3.59789e+10 2.02075e+10 1.37079e+10 1.12026e+10 1.04036e+10 1.01279e+10 6.3985e+10 5.39206e+10 9.43658e+09 7.92769e+09 1.43317e+10 2.52891e+10 1.36792e+10 1.18412e+10 1.1131e+10 7.86057e+09 7.33503e+09 7.20324e+09 6.91473e+09 6.74415e+09 6.53749e+09 6.44603e+09 6.23177e+09 5.76164e+09 5.5304e+09 5.38003e+09 5.20391e+09 5.09321e+09 4.90622e+09
threshold=8035.5000000000009 1.0000000180025095e-35 1.0000000180025095e-35 3413.5000000000005 5.5000000000000009 26.500000000000004 23.500000000000004 11.500000000000002 51.500000000000007 14189.500000000002 1.5000000000000002 25.500000000000004 1.0000000180025095e-35 20.500000000000004 2014.5000000000002 2936.5000000000005 4.5000000000000009 5413.5000000000009 1.5000000000000002 3378.8928571428573 9537.5000000000018 1.0000000180025095e-35 20859.000000000004 47.500000000000007 11.500000000000002 3.5000000000000004 14193.000000000002 29.500000000000004 2769.5000000000005 16430.500000000004
decision_type=2 2 2 2 2 2 2 2 2 2 2 2 2 2 2 2 2 2 2 2 2 2 2 2 2 2 2 2 2 2
left_child=1 3 4 -1 5 6 8 19 10 23 11 12 13 -2 -15 -12 18 26 -5 28 -9 24 -6 27 -18 -14 -3 -4 -8 -10
right_child=2 17 9 16 22 -7 7 20 29 -11 15 -13 25 14 -16 -17 21 -19 -20 -21 -22 -23 -24 -25 -26 -27 -28 -29 -30 -31
leaf_value=-53.118088886481033 5.5778413735812 -2.2638575774182712 64.779605376949789 -181.99307623800158 82.033833346725331 86.901524815741922 -429.80015036395082 -339.0449687154096 395.12998807262386 216.20339447626472 180.65364142317927 42.84569170309144 17.721446027339084 -368.53687520083315 82.058893069787231 14.58163623071979 116.27250066678079 30.315666586581536 -31.555849096600713 50.70099841102143 -691.39774136444726 -5.7658170056588185 493.31714984206269 177.03969152291859 -160.47231706590881 -432.2132628751196 291.19867271137394 239.73769935175329 47.328013334386348 729.86332579688212
leaf_weight=186258 11217 171102 50728 3274 24890 17774 538 3983 2061 5735 4340 12818 309 2038 817 57599 7205 129679 114337 15386 629 118993 387 6150 840 2357 627 1759 383 556
leaf_count=186258 11217 171102 50728 3274 24890 17774 538 3983 2061 5735 4340 12818 309 2038 817 57599 7205 129679 114337 15386 629 118993 387 6150 840 2357 627 1759 383 556
internal_value=-4.49826e-08 -14.1389 46.545 -32.6768 27.3122 15.6984 4.69649 -58.2401 18.6859 93.7762 5.88448 -36.7277 -97.6652 -44.1635 -239.592 26.2181 -17.1143 12.3638 -35.7437 34.7691 -387.1 0.132675 88.3307 81.8021 87.3768 -380.064 -1.1924 70.643 -231.385 466.246
internal_weight=954769 732315 222454 430907 158082 132805 115031 20919 94112 64372 91495 29556 16738 14072 2855 61939 244649 301408 117611 16307 4612 127038 25277 58637 8045 2666 171729 52487 921 2617
internal_count=954769 732315 222454 430907 158082 132805 115031 20919 94112 64372 91495 29556 16738 14072 2855 61939 244649 301408 117611 16307 4612 127038 25277 58637 8045 2666 171729 52487 921 2617
is_linear=0
shrinkage=0.1


Tree=23
num_leaves=31
num_cat=0
split_feature=12 7 12 7 1 13 11 5 11 4 2 2 11 4 1 11 4 13 11 4 2 2 11 5 11 4 1 8 3 11
split_gain=5.18199e+10 2.66681e+10 1.80306e+10 1.71559e+10 9.97259e+09 9.12558e+09 7.11342e+09 7.50571e+09 6.12364e+09 7.83037e+09 1.03286e+10 2.49756e+10 7.77889e+09 5.08391e+09 4.96247e+09 5.77142e+09 5.00145e+09 4.95252e+09 4.66393e+09 5.33908e+09 9.72865e+09 1.59578e+10 4.58899e+09 4.36901e+09 6.09921e+09 5.621e+09 4.24715e+09 4.21764e+09 4.85676e+09 4.03065e+09
threshold=7140.5000000000009 1.0000000180025095e-35 17411.000000000004 1.0000000180025095e-35 4.5000000000000009 2553.5000000000005 3622.5000000000005 3.5000000000000004 1.0000000180025095e-35 1.5000000000000002 5.5000000000000009 4.5000000000000009 6337.5000000000009 28.500000000000004 4.5000000000000009 1.0000000180025095e-35 1.5000000000000002 16424.000000000004 8157.5000000000009 1.5000000000000002 5.5000000000000009 4.5000000000000009 12519.500000000002 51.500000000000007 3198.5000000000005 26.500000000000004 6.5000000000000009 1.0000000180025095e-35 2014.5000000000002 17363.000000000004
decision_type=2 2 2 2 2 2 2 2 2 2 2 2 2 2 2 2 2 2 2 2 2 2 2 2 2 2 2 2 2 2
left_child=1 5 3 4 -2 -1 7 27 -3 10 11 -10 -11 23 16 -16 -7 -9 -8 20 21 -20 -14 24 -6 -25 -4 28 -5 -21
right_child=2 8 26 6 13 14 18 17 9 12 -12 -13 22 -15 15 -17 -18 -19 19 29 -22 -23 -24 25 -26 -27 -28 -29 -30 -31
leaf_value=-51.932650217787398 -1.6015728822547843 37.443484459760036 162.38288158825711 -461.33812084160456 184.21988855153882 -162.21998324407343 -4.7835283077694069 120.43533293636614 79.862424544825288 -20.842572189939879 36.714342394674297 -392.99952318833999 15.471995005568772 140.52666859435104 76.939039216709261 -12.468250466461329 -32.878733385489134 294.01782002635053 282.9490763708468 59.81589064396573 183.51041807818092 -594.6536823896929 116.46396679098615 -319.62352022281704 36.053378695656022 -0.90366100422032103 582.10017227049798 131.56304192576042 -48.209574552613674 163.99073237163415
leaf_weight=154056 139649 55803 8656 379 2929 3085 12684 16965 1924 78319 3330 2663 123776 5212 7700 115820 96741 1820 302 53886 642 660 4669 741 53986 2185 248 808 1142 3989
leaf_count=154056 139649 55803 8656 379 2929 3085 12684 16965 1924 78319 3330 2663 123776 5212 7700 115820 96741 1820 302 53886 642 660 4669 741 53986 2185 248 808 1142 3989
internal_value=1.56215e-07 -16.0338 33.8503 29.6602 13.463 -33.2095 65.2059 116.259 7.93126 0.260008 -97.3404 -194.659 3.99713 45.8021 -20.295 -6.89477 -36.8759 137.253 50.2684 62.0083 -117.96 -319.148 19.1431 37.5519 43.6784 -81.6184 174.073 -53.0698 -151.152 66.9961
internal_weight=954769 647886 306883 297979 204702 377402 93277 21114 270484 214681 7917 4587 206764 65053 223346 123520 99826 18785 72163 59479 1604 962 128445 59841 56915 2926 8904 2329 1521 57875
internal_count=954769 647886 306883 297979 204702 377402 93277 21114 270484 214681 7917 4587 206764 65053 223346 123520 99826 18785 72163 59479 1604 962 128445 59841 56915 2926 8904 2329 1521 57875
is_linear=0
shrinkage=0.1


Tree=24
num_leaves=31
num_cat=0
split_feature=12 7 7 12 1 4 4 2 5 5 1 5 4 1 5 8 5 3 11 15 12 11 4 12 1 4 4 3 2 4
split_gain=4.36094e+10 2.49065e+10 1.26072e+10 1.0635e+10 7.84234e+09 7.77729e+09 9.28698e+09 4.8816e+10 4.27156e+10 7.32969e+09 7.21621e+09 6.84368e+09 6.53015e+09 6.04668e+09 1.16031e+10 2.0256e+10 1.07646e+10 9.25917e+09 8.13842e+09 5.77764e+09 5.66715e+09 5.12284e+09 4.84594e+09 4.73033e+09 4.58094e+09 2.62017e+10 1.84684e+10 2.62238e+10 3.7236e+10 5.94943e+09
threshold=8657.5000000000018 1.0000000180025095e-35 1.0000000180025095e-35 4000.5000000000005 5.5000000000000009 26.500000000000004 23.500000000000004 11.500000000000002 51.500000000000007 47.500000000000007 4.5000000000000009 47.500000000000007 29.500000000000004 1.5000000000000002 25.500000000000004 1.0000000180025095e-35 20.500000000000004 2014.5000000000002 2856.5000000000005 3378.8928571428573 14597.500000000002 2856.5000000000005 27.500000000000004 16430.500000000004 4.5000000000000009 28.500000000000004 3.5000000000000004 2014.5000000000002 9.5000000000000018 8.5000000000000018
decision_type=2 2 2 2 2 2 2 2 2 2 2 2 2 2 2 2 2 2 2 2 2 2 2 2 2 2 2 2 2 2
left_child=1 3 4 -1 5 6 8 19 13 12 -5 21 24 14 15 16 -2 -18 -15 -8 -9 23 -12 -4 29 26 27 28 -26 -3
right_child=2 9 11 10 -6 -7 7 20 -10 -11 22 -13 -14 18 -16 -17 17 -19 -20 -21 -22 -23 -24 -25 25 -27 -28 -29 -30 -31
leaf_value=-43.098252738001122 9.828896757293629 31.703442123395249 118.67954589718153 -27.26970271354017 87.072518208689615 87.053951021254036 -226.18706430433963 -299.14905351114288 430.61360297087651 70.040046238269923 -2.3961712264021111 196.54451405510602 69.792547904953921 175.70453449192112 45.702177026571043 -357.6553302591185 -347.84887685237788 75.734841361303495 18.004956254175024 53.914096329774729 -593.72718799755899 55.59768072391077 55.038962121797169 404.27936408035157 94.407999198433799 -579.65358553599162 8.7884089302228166 -469.52899111211013 -628.89760789204854 -2.0197649652809004
leaf_weight=190532 9745 82067 10170 146886 19271 14111 784 3371 2479 19984 107150 5191 15912 3529 11298 2358 1755 731 45023 12132 810 33066 17024 615 3853 830 46901 2022 873 144296
leaf_count=190532 9745 82067 10170 146886 19271 14111 784 3371 2479 19984 107150 5191 15912 3529 11298 2358 1755 731 45023 12132 810 33066 17024 615 3853 830 46901 2022 873 144296
internal_value=1.09364e-07 -10.1755 44.8875 -24.9937 28.3025 17.828 7.43771 -59.2265 22.2555 11.4195 -12.2678 87.9707 7.47189 8.65622 -30.3758 -89.292 -37.5546 -223.295 29.4673 36.912 -356.219 75.1179 5.47807 134.965 3.94091 -22.0927 -13.4667 -168.148 -39.203 10.2064
internal_weight=954769 778330 176439 461592 127397 108126 94015 17097 76918 316738 271060 49042 296754 74439 25887 14589 12231 2486 48552 12916 4181 43851 124174 10785 280842 54479 53649 6748 4726 226363
internal_count=954769 778330 176439 461592 127397 108126 94015 17097 76918 316738 271060 49042 296754 74439 25887 14589 12231 2486 48552 12916 4181 43851 124174 10785 280842 54479 53649 6748 4726 226363
is_linear=0
shrinkage=0.1


Tree=25
num_leaves=31
num_cat=0
split_feature=12 12 7 7 12 5 4 1 11 4 5 5 15 8 11 5 13 12 7 11 8 3 4 4 2 2 11 1 8 2
split_gain=3.65792e+10 1.6531e+10 1.27417e+10 1.2699e+10 7.18188e+09 6.99023e+09 2.35049e+10 9.12667e+09 1.14986e+10 7.29034e+09 7.25761e+09 1.30099e+10 6.45455e+09 9.01159e+09 5.14096e+09 5.65358e+09 4.41396e+09 4.05225e+09 3.94519e+09 3.8815e+09 3.7947e+09 3.87533e+09 3.75986e+09 3.66801e+09 7.94784e+09 1.46021e+10 4.20472e+09 9.05168e+09 1.68269e+10 8.9499e+09
threshold=6001.5000000000009 12942.000000000002 1.0000000180025095e-35 1.0000000180025095e-35 20859.000000000004 51.500000000000007 23.500000000000004 1.5000000000000002 1788.5000000000002 26.500000000000004 25.500000000000004 13.500000000000002 3691.5357142857147 1.0000000180025095e-35 3664.5000000000005 3.5000000000000004 2072.5000000000005 9720.5000000000018 1.0000000180025095e-35 18729.000000000004 1.0000000180025095e-35 2014.5000000000002 24.500000000000004 1.5000000000000002 5.5000000000000009 4.5000000000000009 12519.500000000002 4.5000000000000009 1.0000000180025095e-35 4.5000000000000009
decision_type=2 2 2 2 2 2 2 2 2 2 2 2 2 2 2 2 2 2 2 2 2 2 2 2 2 2 2 2 2 2
left_child=2 3 16 5 18 7 -7 10 -9 22 11 -2 -13 -14 15 20 -1 -10 -3 -4 21 -5 -8 24 25 -16 -25 -28 -29 -30
right_child=1 4 19 14 -6 6 9 8 17 -11 -12 12 13 -15 23 -17 -18 -19 -20 -21 -22 -23 -24 26 -26 -27 27 28 29 -31
leaf_value=-44.129832747445995 -1.2393075120386206 53.337994828846888 0.35581274928184548 -417.05816621596415 238.19881720605576 246.58846547783924 -114.25381628811654 116.82857045022189 1.5908523574570497 -23.211007980322801 11.622505900663228 -324.58394144950614 -67.408743840562792 -288.98212711251762 188.29951982003499 87.338346403015024 -19.907655501652329 38.416123810174014 133.76990225780619 562.2750680442748 83.23970923043818 -66.284160641722806 -311.98040764602257 23.500345201991024 120.57440285637968 -407.35424273098943 102.58556569823565 68.883934950585427 -729.42447251630438 116.07152830297296
leaf_weight=142565 13275 24989 210874 441 2858 1666 1422 10304 160151 2149 18562 1696 8568 2336 617 28885 159289 36736 8067 123 1004 1102 2971 93489 1209 1236 15932 1569 519 165
leaf_count=142565 13275 24989 210874 441 2858 1666 1422 10304 160151 2149 18562 1696 8568 2336 617 28885 159289 36736 8067 123 1004 1102 2971 93489 1209 1236 15932 1569 519 165
internal_value=-1.27129e-07 21.0859 -18.1695 15.3336 86.1156 2.06891 -88.746 5.03125 13.8511 -174.143 -36.0922 -70.3214 -143.104 -114.877 38.9135 74.7446 -31.3477 8.46187 72.9666 0.683382 -68.0782 -166.538 -247.977 29.0976 -78.8813 -209.017 32.0583 76.0546 -111.558 -525.467
internal_weight=954769 441918 512851 406004 35914 259836 8208 251628 207191 6542 44437 25875 12600 10904 146168 31432 301854 196887 33056 210997 2547 1543 4393 114736 3062 1853 111674 18185 2253 684
internal_count=954769 441918 512851 406004 35914 259836 8208 251628 207191 6542 44437 25875 12600 10904 146168 31432 301854 196887 33056 210997 2547 1543 4393 114736 3062 1853 111674 18185 2253 684
is_linear=0
shrinkage=0.1


Tree=26
num_leaves=31
num_cat=0
split_feature=12 13 12 7 4 12 2 5 5 4 4 4 2 5 1 5 8 5 11 5 3 5 4 12 2 5 4 2 4 5
split_gain=3.09015e+10 1.77754e+10 8.9145e+09 7.18147e+09 6.80608e+09 6.23147e+09 5.86331e+09 5.02754e+09 5.89519e+09 4.71747e+09 4.55616e+09 6.24164e+09 2.9427e+10 2.16139e+10 5.50752e+09 6.80839e+09 1.13715e+10 6.88313e+09 6.03718e+09 4.34172e+09 4.33123e+09 4.32773e+09 4.3408e+09 4.30161e+09 6.24338e+09 6.42958e+09 9.10474e+09 1.6435e+10 8.80124e+09 5.71532e+09
threshold=9394.5000000000018 4442.5000000000009 18742.000000000004 1.0000000180025095e-35 26.500000000000004 3676.5000000000005 11.500000000000002 44.500000000000007 51.500000000000007 24.500000000000004 26.500000000000004 23.500000000000004 11.500000000000002 50.500000000000007 1.5000000000000002 25.500000000000004 1.0000000180025095e-35 19.500000000000004 1788.5000000000002 47.500000000000007 2014.5000000000002 50.500000000000007 5.5000000000000009 1.0000000180025095e-35 3.5000000000000004 20.500000000000004 1.5000000000000002 4.5000000000000009 2.5000000000000004 6.5000000000000009
decision_type=2 2 2 2 2 2 2 2 2 2 2 2 2 2 2 2 2 2 2 2 2 2 2 2 2 2 2 2 2 2
left_child=1 5 3 10 7 -1 -6 23 21 -10 11 13 -13 14 15 16 17 -2 -16 -5 -19 22 -9 29 -25 26 27 -26 -28 -3
right_child=2 4 -4 19 6 -7 -8 8 9 -11 -12 12 -14 -15 18 -17 -18 20 -20 -21 -22 -23 -24 24 25 -27 28 -29 -30 -31
leaf_value=-37.644517519400026 24.125198214634651 -57.423510698600332 165.33029205491141 65.750275904020839 38.169040317715734 -8.1807008062827844 -85.931893688287573 77.662477078115629 38.531784020959982 -271.37539885789414 81.470548333306638 38.344889075729256 -300.97706884542868 323.05209351075371 177.06631853466698 40.324898080973867 -301.33904107484648 -251.58208053455178 27.756597142302798 180.35875403992461 -3.0325950020243564 93.882081107063613 2.0923208043940447 10.483461285608472 7.8576027802302297 -6.6763640685329015 113.03524159277222 -350.92516756236836 -42.658388724680229 67.979562590701732
leaf_weight=188529 6694 4698 5847 30787 72202 115916 4019 10030 853 1158 12261 10367 3392 2404 2897 8949 1874 1869 41522 3703 1122 9936 31386 129075 2551 171709 3880 2556 56531 16052
leaf_count=188529 6694 4698 5847 30787 72202 115916 4019 10030 853 1158 12261 10367 3392 2404 2897 8949 1874 1869 41522 3703 1122 9936 31386 129075 2551 171709 3880 2556 56531 16052
internal_value=1.33278e-07 -7.25928 44.5848 39.0624 4.03553 -26.4263 31.6254 -0.739348 28.0354 -139.923 24.6558 16.0653 -45.308 28.6069 17.7047 -25.1588 -75.8565 -32.2267 37.4946 78.0552 -158.345 34.6128 20.3937 -4.70653 -7.21564 -16.8457 -43.4974 -171.709 -32.6587 39.5871
internal_weight=954769 821081 133688 127841 516636 304445 76221 440415 53363 2011 93351 81090 13759 67331 64927 20508 11559 9685 44419 34490 2991 51352 41416 387052 366302 237227 65518 5107 60411 20750
internal_count=954769 821081 133688 127841 516636 304445 76221 440415 53363 2011 93351 81090 13759 67331 64927 20508 11559 9685 44419 34490 2991 51352 41416 387052 366302 237227 65518 5107 60411 20750
is_linear=0
shrinkage=0.1


Tree=27
num_leaves=31
num_cat=0
split_feature=12 7 4 7 1 12 2 11 11 4 2 2 11 12 5 12 13 4 5 11 4 12 11 11 2 5 1 4 2 5
split_gain=2.58833e+10 1.0956e+10 1.06339e+10 9.14177e+09 6.66332e+09 6.03592e+09 4.56071e+09 3.72292e+09 4.6175e+09 4.73571e+09 5.4572e+09 1.40451e+10 3.93062e+09 3.63386e+09 3.50538e+09 3.49798e+09 3.37511e+09 3.26504e+09 3.25699e+09 4.23738e+09 3.93207e+09 3.3694e+09 3.08807e+09 3.08501e+09 3.00122e+09 8.48004e+09 1.26085e+10 1.19721e+10 2.41168e+10 2.06659e+10
threshold=6744.5000000000009 1.0000000180025095e-35 29.500000000000004 1.0000000180025095e-35 5.5000000000000009 11915.500000000002 11.500000000000002 1.0000000180025095e-35 4759.5000000000009 1.5000000000000002 5.5000000000000009 4.5000000000000009 11147.500000000002 10228.500000000002 50.500000000000007 20859.000000000004 2283.5000000000005 7.5000000000000009 2.5000000000000004 1.0000000180025095e-35 29.500000000000004 1.0000000180025095e-35 6674.5000000000009 2083.5000000000005 3.5000000000000004 25.500000000000004 1.5000000000000002 23.500000000000004 11.500000000000002 51.500000000000007
decision_type=2 2 2 2 2 2 2 2 2 2 2 2 2 2 2 2 2 2 2 2 2 2 2 2 2 2 2 2 2 2
left_child=1 16 3 4 13 14 23 17 -9 10 11 -10 -11 -2 -5 -6 -1 -3 19 -18 21 22 -20 -7 -15 26 -26 29 -29 -27
right_child=2 7 -4 5 15 6 -8 8 9 12 -12 -13 -14 24 -16 -17 18 -19 20 -21 -22 -23 -24 -25 25 27 -28 28 -30 -31
leaf_value=-35.46816057337692 -10.825593401940971 65.237796127738562 109.10239844198072 29.757453689807846 40.350137827267616 176.43164571158465 290.30320678618835 -44.842196114063384 60.908917745330783 2.4210204544738687 25.944871982208099 -306.63992802720321 70.368988764945883 60.039732483758193 126.75015177932414 348.38636732095034 49.607248407296851 10.722841781374672 14.285050985998044 -105.34475612197042 46.069385167890765 -18.8723764685285 169.37623228757636 55.929958161077231 -153.29362771915885 48.243761551952367 20.32640013150808 86.234446006007687 -257.55615070994759 383.62649018867046
leaf_weight=147613 127012 15712 13368 92794 40934 2888 1238 23164 1816 161263 3042 2432 8988 13768 3882 372 2272 36529 5283 7906 10746 176074 1696 8037 6888 18009 10650 4795 3552 2046
leaf_count=147613 127012 15712 13368 92794 40934 2888 1238 23164 1816 161263 3042 2432 8988 13768 3882 372 2272 36529 5283 7906 10746 176074 1696 8037 6888 18009 10650 4795 3552 2046
internal_value=-9.99098e-08 -12.5322 21.6318 18.1607 6.77951 42.0051 108.398 3.33933 -2.85016 2.6286 -76.2981 -149.515 6.00817 -1.26064 33.6522 43.1243 -23.9508 27.1188 -15.6159 -70.7554 -12.7201 -16.1713 51.9745 87.7843 19.0861 6.8125 -47.8624 40.5738 -60.0629 82.4593
internal_weight=954769 604536 350233 336865 228026 108839 12163 252946 200705 177541 7290 4248 170251 186720 96676 41306 351590 52241 203977 10178 193799 183053 6979 10925 59708 45940 17538 28402 8347 20055
internal_count=954769 604536 350233 336865 228026 108839 12163 252946 200705 177541 7290 4248 170251 186720 96676 41306 351590 52241 203977 10178 193799 183053 6979 10925 59708 45940 17538 28402 8347 20055
is_linear=0
shrinkage=0.1


Tree=28
num_leaves=31
num_cat=0
split_feature=12 12 7 12 1 4 4 11 13 5 11 2 11 12 13 1 8 2 5 4 2 2 5 5 1 8 11 4 3 4
split_gain=2.17358e+10 1.21481e+10 7.99984e+09 6.19266e+09 5.48288e+09 4.86259e+09 5.57974e+09 4.84035e+09 4.32031e+09 3.64615e+09 3.4936e+09 5.99275e+09 3.38641e+09 3.26488e+09 3.2263e+09 3.21383e+09 1.81314e+10 3.56232e+10 2.63378e+10 1.13072e+10 1.48741e+10 4.79206e+09 1.56482e+10 6.65297e+09 1.70816e+10 1.23578e+10 7.12791e+09 6.37929e+09 4.74868e+09 3.69854e+09
threshold=4887.5000000000009 10228.500000000002 1.0000000180025095e-35 20859.000000000004 4.5000000000000009 5.5000000000000009 29.500000000000004 3496.5000000000005 9476.5000000000018 3.5000000000000004 1788.5000000000002 11.500000000000002 3958.5000000000005 2265.5000000000005 9677.5000000000018 4.5000000000000009 1.0000000180025095e-35 4.5000000000000009 12.500000000000002 3.5000000000000004 9.5000000000000018 4.5000000000000009 18.500000000000004 26.500000000000004 3.5000000000000004 1.0000000180025095e-35 10108.500000000002 25.500000000000004 2014.5000000000002 5.5000000000000009
decision_type=2 2 2 2 2 2 2 2 2 2 2 2 2 2 2 2 2 2 2 2 2 2 2 2 2 2 2 2 2 2
left_child=8 2 4 5 12 -3 -7 9 -1 -4 11 -6 -2 -10 -14 21 19 18 -18 20 28 27 -23 24 -24 26 -26 29 -17 -9
right_child=1 3 7 -5 10 6 -8 15 13 -11 -12 -13 14 -15 -16 16 17 -19 -20 -21 -22 22 23 -25 25 -27 -28 -29 -30 -31
leaf_value=-21.01176566747046 -36.730137479835847 102.13804723586145 -71.568267883041401 189.20254269655848 114.87341225859483 26.277970777918501 159.13779316789942 80.09194055897342 80.916295730803526 57.632598789011823 6.5513013407776199 -104.3408621162254 -3.3299106382694634 -42.86758931803395 -90.637473386438174 116.78855537328892 15.435310186106859 23.502591932178166 -590.61055050830055 35.053104129785218 -648.81614281279099 -330.04460917216284 12.585960573553425 32.199678021589015 -92.722438207346784 -680.09715265334899 -446.39611312174048 123.97935583410647 -235.13141381172269 10.304541722930106
leaf_weight=355147 56896 11045 2310 2858 6705 80031 3291 10307 7283 40126 108593 1532 107509 3012 4406 835 1051 5087 2257 33281 554 1368 17580 48655 3780 480 671 8558 709 28852
leaf_count=355147 56896 11045 2310 2858 6705 80031 3291 10307 7283 40126 108593 1532 107509 3012 4406 835 1051 5087 2257 33281 554 1368 17580 48655 3780 480 671 8558 709 28852
internal_value=2.10128e-08 11.8815 5.49975 44.1824 -5.34006 39.7903 31.5256 20.4967 -19.1605 50.5996 11.3139 74.1017 -16.8659 44.7009 -6.76714 12.7087 -10.4916 -142.612 -398.061 20.8589 -204.306 21.1541 4.96272 11.4025 -33.5484 -198.027 -146.04 45.7663 -44.812 28.6732
internal_weight=954769 589327 492102 97225 285641 94367 83322 206461 365442 42436 116830 8237 168811 10295 111915 164025 43774 8395 3308 35379 2098 120251 72534 71166 22511 4931 4451 47717 1544 39159
internal_count=954769 589327 492102 97225 285641 94367 83322 206461 365442 42436 116830 8237 168811 10295 111915 164025 43774 8395 3308 35379 2098 120251 72534 71166 22511 4931 4451 47717 1544 39159
is_linear=0
shrinkage=0.1


Tree=29
num_leaves=31
num_cat=0
split_feature=12 7 12 4 7 1 4 5 5 4 13 13 1 13 1 11 5 2 4 12 1 5 11 4 2 2 11 11 4 1
split_gain=1.88779e+10 9.4479e+09 7.13763e+09 5.84814e+09 4.88009e+09 3.9188e+09 3.74981e+09 3.45642e+09 3.29779e+09 3.04663e+09 2.9926e+09 2.95149e+09 3.02959e+09 2.89103e+09 3.58459e+09 4.47466e+09 5.83961e+09 5.15814e+09 3.54663e+09 3.06668e+09 3.1218e+09 2.84519e+09 2.81724e+09 2.7382e+09 5.13422e+09 9.32042e+09 3.53918e+09 2.66667e+09 2.65641e+09 2.46231e+09
threshold=7744.5000000000009 1.0000000180025095e-35 16430.500000000004 29.500000000000004 1.0000000180025095e-35 4.5000000000000009 30.500000000000004 47.500000000000007 50.500000000000007 5.5000000000000009 14620.500000000002 3068.5000000000005 6.5000000000000009 2072.5000000000005 1.5000000000000002 1.0000000180025095e-35 1.5000000000000002 11.500000000000002 25.500000000000004 1.0000000180025095e-35 6.5000000000000009 2.5000000000000004 4362.5000000000009 1.5000000000000002 5.5000000000000009 4.5000000000000009 16442.000000000004 20881.500000000004 14.500000000000002 3.5000000000000004
decision_type=2 2 2 2 2 2 2 2 2 2 2 2 2 2 2 2 2 2 2 2 2 2 2 2 2 2 2 2 2 2
left_child=1 13 3 4 5 10 7 27 9 22 -2 -4 -13 -1 -15 17 -17 -16 19 21 -21 -18 -6 24 25 -24 -27 29 -11 -3
right_child=2 6 11 -5 8 -7 -8 -9 -10 28 -12 12 -14 14 15 16 18 -19 -20 20 -22 -23 23 -25 -26 26 -28 -29 -30 -31
leaf_value=-29.283772703569959 -1.193363287456261 8.7952437049601766 343.33548498740322 102.89872783424615 124.69387472314985 31.27446526695444 93.805322385065196 46.934667179343897 149.46992126248307 -2.1280996402207286 -158.93233676087846 80.703206053634261 407.52326217467845 -56.263884355396684 66.043381907601471 -103.11829891861979 -329.72710833806065 -161.24787546101695 13.659481909855476 -19.519538665671746 148.20271561570539 67.740952165703675 265.88832660460133 56.75877758608955 150.96547330943022 -372.63932262266303 -1008.864567787627 574.87759278850797 45.479207184886086 -10.696312342200315
leaf_weight=147305 110262 162395 475 8200 6132 47947 4724 17591 2615 23748 1216 11214 291 17003 12257 6829 186 1087 52112 170847 1117 5675 213 11324 462 346 117 81 23142 107856
leaf_count=147305 110262 162395 475 8200 6132 47947 4724 17591 2615 23748 1216 11214 291 17003 12257 6829 186 1087 52112 170847 1117 5675 213 11324 462 346 117 81 23142 107856
internal_value=2.3779e-07 -8.32271 23.757 19.9302 16.94 7.36818 5.43307 3.98313 39.3482 34.9507 -2.91398 99.055 88.9696 -18.0365 -11.834 -8.81359 -11.989 47.5283 -9.28249 -16.0057 -18.4301 55.1272 69.2035 41.8991 -105.967 -281.562 -533.413 1.1882 21.3679 1.01625
internal_weight=954769 707065 247704 235724 227524 159425 292647 287923 68099 65484 111478 11980 11505 414418 267113 250110 236766 13344 229937 177825 171964 5861 18594 12462 1138 676 463 270332 46890 270251
internal_count=954769 707065 247704 235724 227524 159425 292647 287923 68099 65484 111478 11980 11505 414418 267113 250110 236766 13344 229937 177825 171964 5861 18594 12462 1138 676 463 270332 46890 270251
is_linear=0
shrinkage=0.1


Tree=30
num_leaves=31
num_cat=0
split_feature=12 12 7 5 4 1 11 5 5 15 8 4 7 11 5 8 3 1 11 12 13 1 4 12 4 5 1 4 1 13
split_gain=1.56721e+10 7.92694e+09 6.06873e+09 4.49454e+09 1.56838e+10 5.69688e+09 8.30243e+09 5.42083e+09 9.57592e+09 5.85514e+09 7.51867e+09 5.02679e+09 4.30271e+09 3.27759e+09 4.09796e+09 3.17337e+09 3.24304e+09 3.92899e+09 3.1418e+09 3.27424e+09 3.0651e+09 3.05271e+09 3.00558e+09 2.95992e+09 2.86332e+09 2.83074e+09 2.75572e+09 2.73739e+09 2.69507e+09 2.70643e+09
threshold=5717.5000000000009 13509.500000000002 1.0000000180025095e-35 51.500000000000007 23.500000000000004 1.5000000000000002 1788.5000000000002 25.500000000000004 13.500000000000002 3641.1071428571436 1.0000000180025095e-35 26.500000000000004 1.0000000180025095e-35 3816.5000000000005 3.5000000000000004 1.0000000180025095e-35 2014.5000000000002 1.5000000000000002 9482.5000000000018 3308.5000000000005 14620.500000000002 3.5000000000000004 19.500000000000004 20859.000000000004 25.500000000000004 3.5000000000000004 6.5000000000000009 24.500000000000004 5.5000000000000009 13817.500000000002
decision_type=2 2 2 2 2 2 2 2 2 2 2 2 2 2 2 2 2 2 2 2 2 2 2 2 2 2 2 2 2 2
left_child=12 2 3 5 -5 7 -7 8 -2 -10 -11 27 -1 14 15 16 17 -4 -14 -20 21 -16 -15 -3 28 -21 -25 -6 29 -8
right_child=1 23 13 4 11 6 24 -9 9 10 -12 -13 18 22 20 -17 -18 -19 19 25 -22 -23 -24 26 -26 -27 -28 -29 -30 -31
leaf_value=-20.725853676626464 -0.059873581367299922 52.424493102524231 -443.56663373538424 191.96780384040554 -86.618071638885098 93.292091629199902 -7.1551990394013707 11.23425762004101 -288.61063194913964 -50.37081750772056 -245.5710988258395 -16.438577209250507 -4.9575727229020181 7.8866267664095604 41.817895178223239 67.105742444553314 -64.339304845688204 820.88927471454338 143.62475685818015 271.08649558999076 152.9020974302741 161.99795506502426 41.762693582909733 136.66552427120527 27.732317376611519 11.067000377770823 582.65754971961451 -249.56020135954424 19.524936231132116 -169.30455269986953
leaf_weight=282582 14211 26967 448 1819 1525 11213 123655 19810 1746 9187 2513 2301 178414 94175 27153 1080 1175 26 2671 435 3293 2292 36280 2712 44235 11164 146 3183 47320 1038
leaf_count=282582 14211 26967 448 1819 1525 11213 123655 19810 1746 9187 2513 2301 178414 94175 27153 1080 1175 26 2671 435 3293 2292 36280 2712 44235 11164 146 3183 47320 1038
internal_value=-6.31382e-08 12.7552 9.44392 0.56055 -69.6736 2.81578 9.39163 -28.6955 -57.2962 -117.789 -92.2972 -137.576 -12.8689 24.636 51.5913 -66.1412 -153.41 -374.208 -1.34627 43.8049 61.4053 51.1727 17.3077 62.6802 5.04118 20.8186 159.449 -196.781 -0.794093 -8.505
internal_weight=954769 479503 449678 283756 8828 274928 227461 47467 27657 13446 11700 7009 475266 165922 35467 2729 1649 474 192684 14270 32738 29445 130455 29825 216248 11599 2858 4708 172013 124693
internal_count=954769 479503 449678 283756 8828 274928 227461 47467 27657 13446 11700 7009 475266 165922 35467 2729 1649 474 192684 14270 32738 29445 130455 29825 216248 11599 2858 4708 172013 124693
is_linear=0
shrinkage=0.1


Tree=31
num_leaves=31
num_cat=0
split_feature=12 12 4 4 4 13 5 5 4 4 4 2 2 2 11 2 4 8 4 1 2 3 5 2 13 1 1 2 8 11
split_gain=1.4127e+10 7.27595e+09 5.37549e+09 4.60853e+09 4.55687e+09 4.53934e+09 3.85134e+09 6.08046e+09 3.69506e+09 3.65041e+09 1.0183e+10 3.8882e+09 4.17143e+09 1.33141e+10 4.19079e+09 3.67194e+09 5.08985e+09 1.47967e+10 3.99987e+09 1.68085e+10 2.25116e+10 2.44869e+10 3.94261e+09 3.63454e+09 3.25844e+09 3.3902e+09 1.11985e+10 2.8486e+10 9.55967e+09 1.37006e+10
threshold=9166.5000000000018 4219.5000000000009 29.500000000000004 29.500000000000004 5.5000000000000009 9743.5000000000018 51.500000000000007 47.500000000000007 23.500000000000004 2.5000000000000004 1.5000000000000002 10.500000000000002 5.5000000000000009 4.5000000000000009 1.0000000180025095e-35 3.5000000000000004 28.500000000000004 1.0000000180025095e-35 3.5000000000000004 3.5000000000000004 9.5000000000000018 2014.5000000000002 24.500000000000004 1.5000000000000002 1760.5000000000002 3.5000000000000004 4.5000000000000009 4.5000000000000009 1.0000000180025095e-35 6645.5000000000009
decision_type=2 2 2 2 2 2 2 2 2 2 2 2 2 2 2 2 2 2 2 2 2 2 2 2 2 2 2 2 2 2
left_child=1 5 6 4 -2 -1 7 9 -8 10 11 12 13 14 -3 16 -11 -18 19 -17 21 -21 24 -16 -20 -26 27 -27 -28 -30
right_child=3 2 -4 -5 -6 -7 8 -9 -10 15 -12 -13 -14 -15 23 18 17 -19 22 20 -22 -23 -24 -25 25 26 28 -29 29 -31
leaf_value=-20.039332881061785 73.066170744744085 -228.84322540888979 45.702445554047905 123.17636308463744 18.530786433710244 58.884486700805212 133.54794329572923 42.885724934628612 -130.28700789921035 11.139329987364309 89.263902116143683 -183.40286800417408 54.568914682032215 -253.70805202506347 -439.5412084742955 51.418962335067455 -6.3521028425713455 -490.52140610820118 32.837415597638561 48.429875756048887 -512.96879359974582 -545.4512008245091 0.72711223787626189 77.870878730269013 -11.463967241351963 2.1650856468418556 -5.2019961110973272 -299.80385140400062 -31.097950353751202 -542.31376159453794
leaf_weight=278879 17494 554 26540 4981 123395 7483 617 31449 3801 141493 15006 1450 5601 2404 140 5856 3109 792 9288 3469 1564 868 164540 4484 52033 7209 32496 5513 1435 826
leaf_count=278879 17494 554 26540 4981 123395 7483 617 31449 3801 141493 15006 1450 5601 2404 140 5856 3109 792 9288 3469 1564 868 164540 4484 52033 7209 32496 5513 1435 826
internal_value=3.35761e-08 -5.1655 1.85546 28.6445 25.3024 -17.977 -0.490716 0.344661 -93.4409 -2.56294 31.3824 -27.9744 -10.8788 -59.2266 31.0657 -4.90005 8.03263 -104.651 -11.4955 -68.6078 -187.719 -70.4285 -9.03894 62.2053 -23.8083 -29.0953 -48.4179 -128.691 -19.0356 -217.858
internal_weight=954769 808899 522537 145870 140889 286362 495997 491579 4418 460130 29639 14633 13183 7582 5178 430491 145394 3901 285097 11757 5901 4337 273340 4624 108800 99512 47479 12722 34757 2261
internal_count=954769 808899 522537 145870 140889 286362 495997 491579 4418 460130 29639 14633 13183 7582 5178 430491 145394 3901 285097 11757 5901 4337 273340 4624 108800 99512 47479 12722 34757 2261
is_linear=0
shrinkage=0.1


Tree=32
num_leaves=31
num_cat=0
split_feature=12 7 7 1 12 4 2 1 8 2 5 4 2 5 1 11 4 2 5 4 4 4 12 8 5 3 12 12 4 3
split_gain=1.17363e+10 6.79208e+09 3.94979e+09 3.89834e+09 3.68734e+09 3.29128e+09 3.09608e+09 2.89574e+09 5.22748e+09 1.04367e+10 1.0685e+10 3.52138e+09 2.8955e+09 5.66515e+09 9.853e+09 9.61446e+09 7.01265e+09 2.10288e+10 1.64269e+10 8.49596e+09 6.0868e+09 8.61943e+09 6.03202e+09 5.45378e+09 3.71495e+09 5.89076e+09 3.2939e+09 3.26621e+09 2.81003e+09 2.80867e+09
threshold=9720.5000000000018 1.0000000180025095e-35 1.0000000180025095e-35 6.5000000000000009 20859.000000000004 30.500000000000004 10.500000000000002 4.5000000000000009 1.0000000180025095e-35 4.5000000000000009 12.500000000000002 1.5000000000000002 3.5000000000000004 25.500000000000004 1.5000000000000002 3198.5000000000005 23.500000000000004 11.500000000000002 50.500000000000007 26.500000000000004 25.500000000000004 20.500000000000004 13509.500000000002 1.0000000180025095e-35 20.500000000000004 2014.5000000000002 14189.500000000002 18742.000000000004 25.500000000000004 2013.5000000000002
decision_type=2 2 2 2 2 2 2 2 2 2 2 2 2 2 2 2 2 2 2 2 2 2 2 2 2 2 2 2 2 2
left_child=1 -1 3 12 7 6 -3 28 11 10 -10 -9 -2 14 20 -16 18 -18 -15 22 21 23 -19 24 -14 29 -25 -20 -4 -26
right_child=2 5 4 -5 -6 -7 -8 8 9 -11 -12 -13 13 16 15 -17 17 19 27 -21 -22 -23 -24 26 25 -27 -28 -29 -30 -31
